{
  "banditArms": {
    "statistical": {
      "weight": 1,
      "plays": 0,
      "wins": 0,
      "losses": 0,
      "value": 0.5
    },
    "anti_pattern": {
      "weight": 1,
      "plays": 0,
      "wins": 0,
      "losses": 0,
      "value": 0.5
    },
    "random": {
      "weight": 1,
      "plays": 0,
      "wins": 0,
      "losses": 0,
      "value": 0.5
    },
    "q_learning": {
      "weight": 1,
      "plays": 0,
      "wins": 0,
      "losses": 0,
      "value": 0.5
    },
    "neural": {
      "weight": 1,
      "plays": 0,
      "wins": 0,
      "losses": 0,
      "value": 0.5
    },
    "meta_game": {
      "weight": 1,
      "plays": 0,
      "wins": 0,
      "losses": 0,
      "value": 0.5
    },
    "iocaine": {
      "weight": 1,
      "plays": 0,
      "wins": 0,
      "losses": 0,
      "value": 0.5
    },
    "ctw": {
      "weight": 1,
      "plays": 0,
      "wins": 0,
      "losses": 0,
      "value": 0.5
    },
    "bayesian": {
      "weight": 1,
      "plays": 0,
      "wins": 0,
      "losses": 0,
      "value": 0.5
    },
    "ensemble": {
      "weight": 1,
      "plays": 0,
      "wins": 0,
      "losses": 0,
      "value": 0.5
    },
    "charge_based": {
      "weight": 1,
      "plays": 0,
      "wins": 0,
      "losses": 0,
      "value": 0.5
    }
  },
  "banditTotalPlays": 0,
  "banditGamma": 0.1,
  "banditNumArms": 11,
  "qLearningStates": {},
  "qLearningTargetStates": {},
  "qLearningEpsilon": 0.1,
  "qLearningAlpha": 0.1,
  "qLearningGamma": 0.9,
  "qLearningUpdateCounter": 0,
  "qLearningTargetUpdateFreq": 10,
  "opponentModels": {
    "23": {
      "moves": [],
      "results": [],
      "totalBattles": 0,
      "wins": 0,
      "losses": 0,
      "ties": 0,
      "adaptationRate": 0.5,
      "lastSeen": 1764945195850
    },
    "24": {
      "moves": [],
      "results": [],
      "totalBattles": 0,
      "wins": 0,
      "losses": 0,
      "ties": 0,
      "adaptationRate": 0.5,
      "lastSeen": 1764945207941
    },
    "25": {
      "moves": [],
      "results": [],
      "totalBattles": 0,
      "wins": 0,
      "losses": 0,
      "ties": 0,
      "adaptationRate": 0.5,
      "lastSeen": 1764945256581
    },
    "26": {
      "moves": [],
      "results": [],
      "totalBattles": 0,
      "wins": 0,
      "losses": 0,
      "ties": 0,
      "adaptationRate": 0.5,
      "lastSeen": 1764945488149
    },
    "27": {
      "moves": [],
      "results": [],
      "totalBattles": 0,
      "wins": 0,
      "losses": 0,
      "ties": 0,
      "adaptationRate": 0.5,
      "lastSeen": 1764945330641
    },
    "28": {
      "moves": [],
      "results": [],
      "totalBattles": 0,
      "wins": 0,
      "losses": 0,
      "ties": 0,
      "adaptationRate": 0.5,
      "lastSeen": 1764945665819
    },
    "29": {
      "moves": [],
      "results": [],
      "totalBattles": 0,
      "wins": 0,
      "losses": 0,
      "ties": 0,
      "adaptationRate": 0.5,
      "lastSeen": 1764945687904
    }
  },
  "neuralNetWeights": {
    "weightsIH": [
      [
        -0.02336924846295041,
        0.07443753757386906,
        0.2349305847573223,
        0.028668154258211787,
        -0.22620371105361303,
        0.17855294652108933,
        0.12291791515167105,
        0.18341462137768605,
        0.07409583192958136,
        0.19408777992806803,
        -0.014424905604792482,
        0.05374842888574949,
        0.23945689795419822,
        -0.11922656653542152,
        0.07805664083020647,
        -0.05219373100671798,
        -0.14475363694924837,
        0.060277390869036496,
        0.04510618656607934,
        -0.14224801982366364
      ],
      [
        0.06598937557498652,
        0.025629646142103946,
        -0.0779834713861669,
        -0.1646316650505082,
        -0.05041092131491043,
        -0.051047613763446464,
        0.20997058705184302,
        -0.20138531642313606,
        0.21104408041789335,
        0.034143829153239214,
        0.07409255779384638,
        -0.030553920937451684,
        -0.21342767610829427,
        -0.06426338898538109,
        -0.06877696108844922,
        0.13492553093731685,
        0.23605319136372205,
        0.03504476981333504,
        -0.19372406835229672,
        -0.15581925280877462
      ],
      [
        -0.006253581461332369,
        0.11672800574866327,
        0.007766382061186072,
        0.029369396903050626,
        -0.04818705198298756,
        -0.16042871645029066,
        -0.22350953354156433,
        -0.012870648608932944,
        -0.1203129760403947,
        -0.18668454247592525,
        0.2353945138248874,
        0.08677103847952461,
        -0.20478795380153159,
        -0.06867182822669093,
        0.1375556917888251,
        0.10450668242545147,
        0.10832743453908145,
        -0.24110656825817312,
        0.021251930181101497,
        0.10576428293540052
      ],
      [
        0.1305064554531714,
        0.21869061027159709,
        -0.03876040851353624,
        -0.12632353684110165,
        -0.2388374603450072,
        0.20472757942438946,
        -0.16775025253286902,
        -0.15529609036113134,
        -0.026090001507336424,
        -0.1868620881478531,
        -0.12149738817518152,
        0.22795531646827905,
        -0.07813269586478,
        0.08052540068684977,
        -0.24102294576322902,
        -0.21193458166171453,
        -0.16670958761740096,
        0.24564145601191856,
        0.006142516683023347,
        0.13331840807573414
      ],
      [
        0.05368231891344477,
        0.2492375747845521,
        -0.21562996751806074,
        -0.21565622101381154,
        0.22451585228446524,
        0.029401923627607407,
        -0.17498967899016082,
        0.08733230965709582,
        -0.024549724127268635,
        0.1360276999165756,
        -0.05152758704329852,
        -0.2401706311407611,
        -0.05553883243721558,
        0.09654145500633893,
        -0.2218041502471335,
        0.08458275075508837,
        0.17554208560723983,
        0.22075662102174465,
        -0.07114425593563811,
        -0.19682772791130587
      ],
      [
        -0.036852706796610124,
        0.19284698847711823,
        -0.015888394729424826,
        0.032891930480056675,
        -0.01635303705308122,
        0.04313358324206862,
        0.15329475323403363,
        0.09051686296985406,
        -0.047952769478728285,
        -0.1955292330153825,
        0.2387979940564794,
        0.09885891229896115,
        0.059327235152630386,
        0.07709238201386004,
        0.11566081693989749,
        0.08113656699967264,
        -0.0018764478815151975,
        0.18216163193991608,
        0.20042337589616221,
        -0.04293654443104378
      ],
      [
        0.21175178162514185,
        0.2248851930006861,
        -0.16510211205496772,
        -0.0780610739351757,
        -0.1997937907478755,
        0.10754698297798226,
        -0.12130499276021,
        -0.1676457010052883,
        -0.1293726363101544,
        0.11646149593464972,
        0.07536733917802485,
        0.24277871136578855,
        0.10069590279245588,
        -0.16071257683129014,
        0.20522317084595765,
        -0.046021838487238065,
        0.10446716565653513,
        -0.23428554341741326,
        -0.10180175523420387,
        0.23156188181427517
      ],
      [
        -0.09334510998935808,
        0.20145459510881192,
        -0.027975095729305455,
        0.016948468551171936,
        -0.2106768532811899,
        -0.2113217377893878,
        -0.04188254909072986,
        -0.06190114630067256,
        -0.04168394943529807,
        0.14101253515840317,
        0.19106288330659538,
        -0.19000934266002778,
        0.21965855710965076,
        0.24893302137604334,
        -0.15803878988521114,
        0.21417212916930572,
        -0.07704325899262321,
        -0.10698229165794826,
        -0.08895485015739801,
        0.046221527481335345
      ],
      [
        0.14647442454592607,
        -0.20697246228206356,
        0.23181606323663795,
        -0.048203257866832216,
        0.24498691702306774,
        0.01856822235140787,
        0.21706465533865182,
        -0.17741893149313281,
        -0.1439085611239319,
        0.1192589212362718,
        0.18987145517217363,
        -0.031720804986257956,
        0.022166015039608467,
        -0.20750820977799878,
        -0.012577479917022294,
        0.0026269511058024664,
        -0.051836453928510995,
        -0.2285299341132927,
        -0.19664421937075438,
        -0.1899617875295051
      ],
      [
        0.053209937834655885,
        0.14377381189841054,
        -0.07805132617484101,
        0.13918252821141752,
        -0.05929356838232702,
        0.05978216055994878,
        -0.12431730343949254,
        -0.12549132819068476,
        -0.1596054244592442,
        0.18857884068963116,
        -0.20435942113271588,
        -0.0942381787870773,
        -0.03240136989275677,
        0.1930643772796572,
        -0.14581515060154093,
        0.030954917972719653,
        0.0015378730087534098,
        0.12314508485368958,
        0.21906511856297772,
        0.12006234805219651
      ],
      [
        0.08101391144283521,
        -0.07088617614620107,
        -0.2388653775001338,
        -0.08084165849469693,
        0.1211859539951079,
        -0.04862805838847106,
        -0.18847580100705186,
        -0.1830328491454608,
        0.17979072820527642,
        0.21227670156436407,
        0.1639630131693447,
        -0.0022967901171889737,
        -0.19474746626442874,
        0.1231245914413146,
        0.21516885175781575,
        -0.019808701011037932,
        0.2461919425965603,
        -0.21609392144173123,
        0.055188102749593515,
        -0.23214086145980384
      ],
      [
        0.181678490802328,
        -0.10368337510381775,
        0.24091395286784434,
        -0.0024371856236321543,
        -0.22947689539081562,
        -0.0731237421740013,
        0.18190691182033547,
        -0.13038303084312797,
        -0.17918456989257026,
        0.23371296721479085,
        -0.16320341834931762,
        0.22045887518306118,
        -0.09141280930147089,
        -0.0898344544868469,
        0.10773311278504882,
        0.11812581711587633,
        -0.15204136225878473,
        -0.11657358471945245,
        0.13959066221970196,
        -0.035030846200056476
      ],
      [
        -0.14668723252794125,
        -0.23369477254526605,
        -0.2049849527680523,
        -0.1685282460205315,
        0.1504182786967353,
        -0.06930031064082498,
        -0.01076287497361661,
        -0.05302856813022583,
        -0.05603852916568686,
        -0.12808458647107612,
        -0.09568064982202817,
        0.13503615285485748,
        0.03272051244992846,
        0.0005046626627209783,
        -0.024592853171259255,
        0.07291891204606415,
        -0.09335258462551965,
        0.02308031886140316,
        0.16764897438702853,
        0.14268878638685212
      ],
      [
        -0.08395556876041621,
        -0.036841753595488025,
        -0.13622331563945,
        0.18710813128511206,
        0.09827133078647166,
        0.07447706436306867,
        0.13320212444738833,
        -0.15792594542409844,
        -0.17433435896729632,
        -0.05149236781722133,
        -0.17379162364930034,
        0.11267906313077958,
        0.07027681109208639,
        -0.20636218504115578,
        0.10542178161757465,
        0.04834289742426834,
        -0.1627776619118294,
        0.19344015963975947,
        0.0620048232644943,
        -0.1439720217631586
      ],
      [
        0.20734514386198644,
        0.15781581696976588,
        -0.2333003537770999,
        -0.23058573139926863,
        -0.19999777691047382,
        -0.03762736990269311,
        -0.05069070607887349,
        0.11440740156499973,
        -0.18476432608556037,
        -0.23372509618601967,
        -0.06265983198622871,
        0.08575940046893027,
        -0.005023864696048874,
        -0.17384195689066817,
        -0.10195558881970945,
        0.11185758292324577,
        -0.01584198944791415,
        0.1825077579916502,
        -0.025189408675779124,
        0.08404004700143974
      ],
      [
        0.1467833563750095,
        -0.16517035399872315,
        -0.10699089396624195,
        0.15201209101542767,
        0.24138680088408893,
        0.2328675839762412,
        -0.20821648235707668,
        0.08659132151938564,
        0.01898528275452971,
        -0.13602726913136798,
        -0.1233273178279779,
        0.2339163751478337,
        -0.05672366406579643,
        0.11568267225489992,
        0.24588997014050107,
        -0.0936938471050176,
        -0.14060767975750232,
        0.004135782389514175,
        0.05453509882504037,
        -0.008495367521044517
      ],
      [
        0.14451606052538646,
        0.17121639241080278,
        -0.2162669265937055,
        0.18921185425720177,
        0.013588039044792,
        -0.04818421573034637,
        0.16039116395392572,
        -0.22356619109423015,
        -0.14298683932024747,
        0.17216097642784967,
        0.06872250459944163,
        -0.21054384502961143,
        0.23381151274452094,
        0.15365863897894616,
        -0.04868052200506823,
        0.07496911656658589,
        -0.07229747727006597,
        0.10714288294784735,
        -0.023709021511753914,
        0.20349402288341667
      ],
      [
        0.2375584473604434,
        0.020829356096503715,
        -0.1601503274763697,
        0.08136904542654755,
        -0.15890797017148361,
        -0.22935482543023566,
        -0.13694589316159,
        0.07034483387965595,
        0.1740827124513904,
        0.007100641385410444,
        -0.20904604754090694,
        -0.11029733325809088,
        0.14154235157993478,
        0.1649102781816506,
        0.23592745625895772,
        0.012767354533033348,
        -0.20596954766996134,
        -0.02163661156546126,
        0.047341166611700736,
        0.22973663207215456
      ],
      [
        -0.186885457997357,
        0.19571627345067177,
        0.16091377055934986,
        -0.08170101780255279,
        -0.041460875758378535,
        0.2268947234310832,
        0.002647705308324144,
        -0.006496307938280932,
        0.16937447602657796,
        0.04648615369805853,
        -0.19259033443664453,
        -0.22361752223923548,
        -0.046946974689187626,
        0.07314549736471798,
        0.10967388624208818,
        -0.21218806178475824,
        0.20856715778268087,
        -0.13005198422168762,
        -0.16911739139177528,
        0.060996326438048976
      ],
      [
        -0.09991645940637262,
        0.14352763317701256,
        -0.1513120701595757,
        0.15133686143164038,
        -0.22338325102831946,
        -0.22478104843533064,
        -0.06279913369416912,
        0.21586237794338037,
        0.04828579209241113,
        0.10806606742811753,
        0.14671599235115362,
        -0.0765408788523414,
        0.06968862947500332,
        0.12055148343737165,
        0.02102438100466797,
        0.2326593250949064,
        -0.10785983756609574,
        -0.05707646228344865,
        -0.014036636144388104,
        0.09338198365833739
      ],
      [
        -0.20465297993347809,
        -0.03907806728436758,
        -0.0801417729254793,
        0.1413147424610931,
        0.028236512291659355,
        0.07780265109158513,
        0.13889044121246297,
        0.058947384102295386,
        0.24052635628739638,
        -0.05899810680131867,
        0.10614040168864025,
        -0.023702596904062068,
        0.2482108610132222,
        -0.08264530603630049,
        0.13624634953952008,
        0.03815651030583711,
        -0.17164030709887923,
        -0.0077635181208226545,
        0.02583598185707392,
        -0.015033272690048838
      ],
      [
        -0.22886449106778184,
        0.1676788123495957,
        -0.23040170478351507,
        -0.14810312260438663,
        0.0733237628971477,
        0.19527831355906844,
        -0.11253142355110834,
        -0.2053458273244667,
        -0.20804636046115488,
        -0.17030697050030452,
        -0.17056852087595997,
        -0.08088854911011756,
        -0.20654324255775214,
        -0.09808605596688058,
        -0.031728553533670545,
        -0.23388092725668053,
        -0.11953281487768774,
        -0.13233235694991086,
        -0.10373024920264229,
        -0.09858678389444886
      ]
    ],
    "weightsHO": [
      [
        0.07679889356220915,
        -0.13947523705166343,
        0.06729401594253459
      ],
      [
        0.02028388169130091,
        0.20390836904722653,
        -0.06184154694851218
      ],
      [
        0.056972270158324734,
        -0.08911033367856935,
        -0.13509947303190317
      ],
      [
        0.03486627187324509,
        0.17975100665878796,
        0.13176063044344077
      ],
      [
        -0.05943653012222505,
        -0.17531421667553282,
        0.16874155816352865
      ],
      [
        -0.04429456008598365,
        0.20372118602339107,
        -0.07129550855872469
      ],
      [
        0.17925765574086316,
        -0.21670385782909507,
        0.1307817120670567
      ],
      [
        -0.14217281974871843,
        0.1402388331606137,
        -0.19595855955837682
      ],
      [
        -0.06484344539554421,
        0.07581513461500466,
        -0.048321865644716966
      ],
      [
        -0.056407354177660074,
        0.2147928424288693,
        0.23530646940122746
      ],
      [
        0.22722785962512404,
        0.2047532137878988,
        0.23337047826319557
      ],
      [
        0.19740915175860607,
        0.24569265915567873,
        0.09999570443920713
      ],
      [
        -0.16026417095399703,
        0.1586999482262006,
        -0.15237189519670247
      ],
      [
        0.05196097357066387,
        0.11387360495711663,
        0.23109899985643956
      ],
      [
        -0.02442584946272408,
        -0.13922049161489936,
        0.07064371926861379
      ],
      [
        -0.05121821320286846,
        -0.05419774966366642,
        -0.21923738385650016
      ],
      [
        0.12185989829999222,
        -0.0794156252059377,
        -0.09474076929026287
      ],
      [
        -0.1781707264179141,
        -0.08662878160454368,
        -0.10693077786362504
      ],
      [
        -0.004371023003714836,
        0.08861080414245437,
        -0.02180369843405283
      ],
      [
        -0.19904489730934527,
        0.22006944530236638,
        0.03392729067550404
      ]
    ],
    "biasH": [
      0.032664861643040013,
      0.011334381986975717,
      0.022940247698192074,
      0.033989363198145654,
      0.027024807436025755,
      0.09349901664358262,
      0.0995122233735799,
      0.0592440667653013,
      0.005089263824105195,
      0.06046570541366134,
      0.030373678824338925,
      0.05548160490643039,
      0.03369103176346322,
      0.02995467877933089,
      0.07393306083178008,
      0.017193387351380096,
      0.00861218605628218,
      0.049273303345412404,
      0.028020348380331808,
      0.07143555355591436
    ],
    "biasO": [
      0.03736400227022372,
      0.03343310043276058,
      0.025487331070881483
    ],
    "momentumIH": [
      [
        0.09987101879559246,
        0.24179262151431014,
        0.017184540660510672,
        0.22131523543824438,
        0.2233608094395243,
        -0.06966111824202748,
        0.03465344005186477,
        0.08772411220816001,
        -0.03742681036027806,
        -0.19865984598671882,
        -0.13468150478356922,
        -0.2361896544894585,
        0.20987241515591193,
        -0.04563018568559274,
        0.08778555298814805,
        -0.03830309662877984,
        -0.08576462259589746,
        0.1638197851326112,
        -0.10714448643318775,
        -0.016907159803136285
      ],
      [
        -0.2040671012444435,
        0.0910937074664292,
        -0.1955849148841715,
        -0.21058454333840215,
        -0.1768629451978837,
        -0.1487905973209689,
        0.11113796715344049,
        0.06480182197570172,
        -0.0022206662485863005,
        0.22421957115681268,
        -0.07960183285633682,
        0.23098500531476995,
        0.16837760603084984,
        0.21403847957878896,
        0.19721078112635526,
        0.11610708807425774,
        0.07069730659070483,
        0.06468008420573446,
        -0.14842056083042254,
        -0.11422551781655621
      ],
      [
        -0.08485495181605762,
        -0.23665534894390095,
        -0.12932619835178527,
        0.02597884608341905,
        -0.10304510693084223,
        0.03725035986523684,
        0.029980560639280007,
        0.24065261508551494,
        0.23132273601422215,
        -0.0005039305207975575,
        0.07186270810180873,
        -0.2453660459343091,
        -0.07171529581306635,
        -0.06569528409967218,
        -0.01941058339910906,
        -0.04486732153798434,
        -0.14371149768381153,
        -0.09847193514594721,
        0.14204011561299612,
        0.22196742625382992
      ],
      [
        0.00586758416989952,
        -0.052517945011676836,
        0.22727317042890294,
        -0.18064751039209193,
        -0.14475030399973088,
        0.020720101189662277,
        0.10860973803525353,
        0.0158359234008959,
        0.16610884166970863,
        0.13938043133692868,
        -0.17818759601098022,
        0.20625186199498036,
        -0.21877331970441316,
        -0.06934674221355475,
        -0.1863150924682353,
        -0.01864069454188677,
        -0.23240891845632516,
        0.22763797919628814,
        0.13811768480300346,
        0.0912585611084229
      ],
      [
        0.0003220010124406203,
        -0.029463686404197498,
        0.20838440080223986,
        -0.019630495537234616,
        0.03810763656039129,
        -0.0961359942529415,
        0.129972465291039,
        -0.2123259531738091,
        -0.058144527491739595,
        -0.07281719618965121,
        0.16714870489685552,
        0.0006527340656183878,
        0.24210463049895858,
        0.08152501706827675,
        0.043925033000023705,
        -0.12578630439373517,
        -0.06248600550666028,
        -0.06740492515012786,
        0.10609087608222778,
        -0.14590866155816307
      ],
      [
        0.0008130081552591983,
        -0.029170467473539574,
        -0.0816697684739709,
        -0.027081171722294517,
        -0.06127755235034926,
        -0.24369114224764366,
        0.04626244032017912,
        -0.007771080228421434,
        0.1598801748927965,
        -0.14737858778596447,
        -0.13719493975715003,
        -0.11132625995796741,
        -0.07534890443431386,
        -0.07649211428550928,
        0.0033567249867055837,
        -0.12303056745105267,
        -0.20950741598899536,
        0.11171143794060467,
        -0.059324574619328274,
        0.13892401002831944
      ],
      [
        -0.09161776500143326,
        -0.22208508278991734,
        -0.22258959307035364,
        -0.2151866514309988,
        -0.038409265793107994,
        -0.19499520173192464,
        -0.21700767413819178,
        0.13908992986673474,
        -0.0263600560555739,
        -0.22642369716385458,
        0.2301169958109468,
        -0.06341978016566707,
        -0.20996536357264228,
        0.1642309203581822,
        0.19567144761647637,
        -0.01446120240002191,
        -0.1903808409827562,
        0.14165757191361816,
        -0.12133749763476143,
        0.15945019404572625
      ],
      [
        -0.008768026773451454,
        0.05952430990154767,
        -0.0649507801812843,
        -0.19172579588829908,
        0.1626515776598012,
        0.11027970698341616,
        -0.04919790895817744,
        -0.05885191275651358,
        -0.13964484642032982,
        -0.15029827265024864,
        0.1405334948725815,
        0.047637011065951085,
        -0.2119102896907059,
        0.14944292776642676,
        0.013579687554919895,
        0.2313219150817799,
        -0.14440385844800407,
        -0.071281396785704,
        0.10692452527227236,
        -0.05329397098728661
      ],
      [
        0.019769152647480692,
        0.16375060321195412,
        -0.17674091544707382,
        -0.07110621459774447,
        0.11147599085836357,
        0.22806066792757052,
        0.12725571099207544,
        -0.13765394398932818,
        0.04093321700160679,
        -0.15539588846151497,
        -0.09682685626635235,
        0.21007958556306794,
        0.01862538894982324,
        -0.23176101331737264,
        -0.20842381809153288,
        -0.144374897227324,
        -0.19644467713938008,
        0.20377151788425985,
        -0.16844660905370323,
        0.23565937421321526
      ],
      [
        0.18785042717764766,
        -0.06572131652820845,
        0.0008163596789633187,
        0.01571991067507872,
        -0.15611158486961796,
        0.017512869302190093,
        0.01861281352701427,
        0.13539193666927596,
        -0.08276038769167293,
        -0.2300590512390852,
        -0.07610928858250521,
        -0.06353759479890664,
        0.18978362701764317,
        -0.21594150757020858,
        0.20563448059314926,
        -0.07456370398516288,
        0.07714993299515172,
        0.13430268936084422,
        -0.06591366300949031,
        0.14668550007066006
      ],
      [
        0.031059688595208135,
        -0.047292939572541104,
        0.04274925538399721,
        -0.1714434712021521,
        0.13624849731578814,
        -0.09268333077359991,
        -0.044414878812252034,
        -0.020462262719161073,
        -0.21498439422175653,
        0.16288701981622455,
        -0.012320117274435716,
        -0.03953225885291223,
        -0.05776235830881693,
        -0.23869383046304304,
        -0.21738729088271302,
        -0.16753779368898525,
        -0.24295257193328135,
        0.11586437070333477,
        0.05320657136742335,
        0.19190286150700664
      ],
      [
        0.18245599514017397,
        0.17543959034890344,
        0.10043738592269413,
        -0.09889661337100508,
        -0.0658800824409006,
        0.17394362624935766,
        0.12883140303679774,
        -0.04044643330824127,
        -0.012151549690562535,
        0.23523735510827415,
        0.17139758692740592,
        0.15473019344127903,
        0.18458663078084447,
        -0.05889931683753158,
        -0.07595164182446346,
        -0.21097760386914988,
        -0.028511391137092112,
        -0.1459043417558027,
        0.24712894733011015,
        -0.18787969182634023
      ],
      [
        0.06309665763530237,
        -0.009281112638002464,
        0.19670684630464597,
        -0.19855984908707214,
        0.05576422122044544,
        0.03157169160938855,
        -0.24886339618755038,
        -0.09640694453523291,
        0.1315283508454772,
        0.23988589438342167,
        -0.21811007479299838,
        0.1821823249981931,
        0.14828300638989778,
        0.1359916820769933,
        0.05308303735253461,
        0.0349053627161966,
        0.2444765548849972,
        0.14651296472636754,
        -0.2056538386721849,
        0.16619122229201277
      ],
      [
        0.1303507092222691,
        -0.1080500858297907,
        -0.05185372024076973,
        -0.006111245369371021,
        -0.23242699696603508,
        -0.052768882164938136,
        -0.08518360732088437,
        -0.1065422608708354,
        0.1386550580904201,
        0.05696452098045257,
        -0.046629714787100984,
        -0.1634000823071916,
        -0.013867892109430402,
        0.23837671771999003,
        -0.12266595571838468,
        0.01855320908633895,
        -0.1779719636118805,
        -0.12056422609553641,
        -0.05661171543190846,
        -0.15805822277228487
      ],
      [
        -0.16278985871043683,
        -0.1794685033014316,
        0.08327315051494677,
        -0.02927541738883299,
        -0.016926665567530974,
        -0.12877576232975985,
        -0.08800947021136918,
        0.20428279146154138,
        -0.14345583018892272,
        -0.17988568591193077,
        -0.026102339899535698,
        0.039859698427697765,
        0.13518226984537396,
        -0.03780709254145209,
        -0.03740264352036826,
        0.09053448917215168,
        0.18850208120443301,
        0.13760361277131972,
        -0.07591453198888987,
        0.21902975055003726
      ],
      [
        0.003279457022119847,
        0.03042280629856564,
        0.18960284795123272,
        -0.20940527452973023,
        -0.04862668673618886,
        0.015624758828827301,
        0.0564199378777146,
        0.05646643227897985,
        -0.23027348283755433,
        -0.13586087978861905,
        -0.22865073510208234,
        -0.22136686783857196,
        -0.14628999275901478,
        0.07757506427110505,
        0.20575007702317838,
        -0.007826017898065252,
        0.12878598723033519,
        -0.13829722924924337,
        0.08650847257699956,
        0.04958051724779411
      ],
      [
        0.05621210717029368,
        -0.015329272133800309,
        0.21670150991385317,
        0.12569214928925398,
        0.05756841316243111,
        -0.22412381691113892,
        -0.04866481029324621,
        0.05367815152683031,
        0.0811676582965386,
        -0.04387585178802078,
        0.22976912316878073,
        0.02098590661234867,
        -0.11085902337104303,
        -0.11994233376266705,
        -0.23874962320311377,
        -0.20404971870672073,
        -0.07084469821351935,
        0.2195403418402453,
        -0.1611209794969506,
        -0.059512511738006646
      ],
      [
        0.10933136846551716,
        0.16105675791524576,
        0.1489293374579942,
        0.13155650287552512,
        -0.20894467222560076,
        -0.23631490362483376,
        -0.027950621278299392,
        0.07870661443831606,
        0.0001750797771972179,
        0.08320704166612813,
        -0.10221198919485597,
        -0.2276334813185038,
        -0.0828341196032436,
        0.026510347488252317,
        0.0749057229535357,
        -0.22289901083336316,
        0.20441807878074025,
        -0.2358062933078402,
        -0.0030095834291274937,
        -0.14976994451670245
      ],
      [
        0.20824406475917234,
        0.11205168826663137,
        0.1554725534170468,
        0.2180317401409283,
        -0.007905104248441597,
        -0.08019079206545787,
        0.16020798660266544,
        -0.084074627604801,
        -0.21975692884128462,
        0.22452453744779932,
        0.041146302735549534,
        0.20552143800879208,
        0.13425771719485824,
        0.050319057951170754,
        -0.2462690257023673,
        -0.03132182549170126,
        -0.09396564169210819,
        0.029411773919686746,
        0.20473522884991657,
        -0.07297091244278198
      ],
      [
        0.006174337433156207,
        -0.015490971131627451,
        0.07915558380744869,
        -0.174738707458998,
        -0.04717028657001676,
        0.04100184647540717,
        0.059793140210072204,
        0.08835003696659938,
        0.09286902010864151,
        -0.048429167475675494,
        -0.16785300459786456,
        0.1482695655019859,
        -0.04235925998976209,
        -0.08503550528215265,
        0.2046989703008263,
        0.1474386732490941,
        -0.09072903119454778,
        0.05927491297179943,
        -0.1477326761098794,
        -0.12874718396125695
      ],
      [
        -0.0025596613294925907,
        0.036011208507683135,
        0.22560102475200894,
        -0.13259432513098846,
        -0.05816384087178472,
        -0.22221092504452045,
        -0.03876757618436255,
        -0.11977129413428877,
        -0.10751298663680642,
        -0.10830478304241642,
        0.13824002601830154,
        -0.16353627246315716,
        0.04469033991546023,
        0.18220015799700207,
        0.23128561623504373,
        -0.014176170429249457,
        0.002955142253905363,
        -0.09856446350183956,
        0.21598709435611285,
        -0.17376884722512798
      ],
      [
        0.11650284803567745,
        -0.09822155137573607,
        0.044783734016372256,
        0.2496050681405202,
        -0.07173697967241477,
        0.11218566400317176,
        -0.0959000781118029,
        -0.13477201447576048,
        -0.15901944913254185,
        -0.2140970216025725,
        -0.20642625290593286,
        -0.07847485971020196,
        -0.19591144608037825,
        -0.21127203858545374,
        0.16321741695392522,
        0.0767717601373683,
        -0.14563368221558293,
        -0.20429465051725393,
        0.034089487858231515,
        -0.24588492418706565
      ]
    ],
    "momentumHO": [
      [
        -0.0569521221986512,
        -0.2119286983049149,
        -0.013794419989637596
      ],
      [
        -0.1127109420821687,
        0.07613048524920962,
        0.08423121542771217
      ],
      [
        0.14299659545585153,
        0.07572220378255301,
        0.1786565604954785
      ],
      [
        -0.20343050863256862,
        0.10681667787128324,
        -0.22897311029100142
      ],
      [
        0.20982732416680672,
        -0.19655197975994243,
        0.12317581827248547
      ],
      [
        0.12179655443573023,
        0.13299547260522948,
        0.07732718388134097
      ],
      [
        -0.1890694208678485,
        -0.028587830724445595,
        -0.08537368612500917
      ],
      [
        0.06796339336961821,
        -0.0035460869160566233,
        0.20176067965710254
      ],
      [
        0.06625557855014175,
        -0.13073840837880102,
        0.17152317128985684
      ],
      [
        -0.03991803496177149,
        0.08218253178139012,
        0.2138158187491881
      ],
      [
        0.05255501659376538,
        0.18219319983603321,
        0.07242100748811275
      ],
      [
        0.16800604349640402,
        0.16501674974058889,
        -0.1992097440007713
      ],
      [
        -0.00377352898317751,
        -0.05246245833053376,
        -0.1056965992748422
      ],
      [
        -0.11801663429400111,
        0.13087772052956392,
        0.003174901286290277
      ],
      [
        0.09795277950319914,
        -0.056968014378104725,
        0.07327654712493292
      ],
      [
        0.07094582240366887,
        0.24721378071017974,
        -0.1207610906763239
      ],
      [
        -0.20440538696025778,
        -0.036030219635962424,
        -0.14806691955351148
      ],
      [
        -0.17793992223527244,
        -0.039586813321126124,
        0.15979174490925097
      ],
      [
        -0.14970341110784402,
        -0.1911132343409584,
        0.01599285874938905
      ],
      [
        0.10179574089901366,
        -0.009615166290118826,
        0.058539529088797115
      ]
    ],
    "momentumBH": [
      0,
      0,
      0,
      0,
      0,
      0,
      0,
      0,
      0,
      0,
      0,
      0,
      0,
      0,
      0,
      0,
      0,
      0,
      0,
      0
    ],
    "momentumBO": [
      0,
      0,
      0
    ]
  },
  "metaLearning": {
    "opponentTypes": {},
    "strategyEffectiveness": {},
    "typeClassifierWeights": [
      0.25,
      0.25,
      0.25,
      0.25
    ]
  },
  "battleHistory": [],
  "ctwModels": {},
  "rnnModels": {},
  "iocaineState": {
    "enemyData": {}
  },
  "bayesianState": {
    "opponents": {}
  },
  "saveTimestamp": 1764945915923,
  "version": "1.3.0"
}