{
  "banditArms": {
    "statistical": {
      "plays": 0,
      "rewards": 0,
      "value": 0.5,
      "confidence": 0
    },
    "anti_pattern": {
      "plays": 0,
      "rewards": 0,
      "value": 0.5,
      "confidence": 0
    },
    "random": {
      "plays": 0,
      "rewards": 0,
      "value": 0.5,
      "confidence": 0
    },
    "q_learning": {
      "plays": 0,
      "rewards": 0,
      "value": 0.5,
      "confidence": 0
    },
    "neural": {
      "plays": 0,
      "rewards": 0,
      "value": 0.5,
      "confidence": 0
    },
    "meta_game": {
      "plays": 0,
      "rewards": 0,
      "value": 0.5,
      "confidence": 0
    }
  },
  "banditEpsilon": 0.1,
  "qLearningStates": {},
  "qLearningEpsilon": 0.1,
  "qLearningAlpha": 0.1,
  "qLearningGamma": 0.9,
  "opponentModels": {},
  "neuralNetWeights": {
    "weightsIH": [
      [
        -0.1328485577719969,
        0.15858094550377055,
        0.10529728958789686,
        -0.21810749439825516,
        0.14660217955185684,
        0.0072668401729213405,
        0.10556912392534168,
        0.05821291554759578,
        -0.1722954483595791,
        -0.06632275040068147,
        -0.07475947577492059,
        0.1155506215533294,
        -0.14536322117526645,
        0.20082881497438376,
        0.02261414212036894,
        0.17131309093515612,
        0.1414977657405202,
        0.027264867488706046,
        -0.2025643368701171,
        -0.017933554148873654
      ],
      [
        -0.2116479582084494,
        0.09872781299034783,
        0.17495718429313134,
        0.07947765376497307,
        0.1130207648960363,
        0.0670901954192612,
        0.12153367086816869,
        -0.19319069351502738,
        -0.20211537283130931,
        -0.2045230821581342,
        -0.057204340240281204,
        -0.06727867376753138,
        0.18713664284949072,
        -0.004040360520024544,
        0.012907453963334481,
        0.07414682919924531,
        -0.13228308429082847,
        0.06468488105552028,
        -0.19803789077418177,
        -0.1743117800757492
      ],
      [
        0.04408053560108005,
        -0.14351609190229409,
        -0.062317014048135944,
        -0.15169532769753558,
        0.12490725090990107,
        -0.1084346906606447,
        0.15316004908748204,
        -0.030856492432515537,
        -0.07682729350640694,
        -0.17341637246462804,
        0.1956779723261346,
        0.17989141470822512,
        -0.09040126728024966,
        -0.21554043236324438,
        0.2367161943409377,
        -0.24519098296847408,
        -0.07914485497292267,
        -0.010520387541673948,
        0.11214325310493489,
        0.17091507195940825
      ],
      [
        0.012964779579873076,
        -0.10423296049641284,
        -0.044815144254980344,
        -0.0520508124122393,
        0.0896211643036533,
        -0.04643138486331477,
        -0.10565307451246075,
        -0.1431143229380235,
        0.004126428919830283,
        0.18782313646751103,
        0.17397163695249773,
        0.17741065563777414,
        0.20113431784220615,
        -0.020859641605516233,
        0.21221026756067263,
        -0.24699136044623915,
        -0.1474137395463696,
        -0.048878769400116595,
        0.2318906571645324,
        -0.13534136606198421
      ],
      [
        -0.21901024788955836,
        -0.23922525697234676,
        0.05322453777772973,
        -0.0047866172893131775,
        -0.14642472104330928,
        0.011687982231342486,
        -0.011708987180803598,
        0.1507109521946416,
        0.018085494268576086,
        -0.11678606263035352,
        0.062143285445267926,
        0.08432533982840185,
        0.17201798710372096,
        0.18843135686270673,
        -0.15850632854477154,
        -0.07701309998488359,
        -0.20930466739832476,
        0.16886446489931817,
        -0.08381500288197075,
        -0.1433680825908794
      ],
      [
        0.009914749911318133,
        0.09127885783504108,
        -0.017316677478672604,
        -0.040048021152979674,
        -0.2106392363825692,
        -0.03329276626963573,
        0.22907669260129115,
        -0.14485827633063952,
        0.0036836419004456777,
        -0.14554074376426696,
        -0.22912986618179787,
        -0.21942638222791566,
        0.009793430577256124,
        -0.20295431774602268,
        0.17336799340229492,
        0.24400634975964952,
        0.11482486848362283,
        -0.06334697601695083,
        0.09212740008802855,
        -0.15407235881982007
      ],
      [
        -0.052056015601373185,
        -0.006845405271249327,
        -0.23096847147766997,
        0.16831991913068056,
        0.2099959375523175,
        -0.18236791364857663,
        -0.005186873374911638,
        0.13230392995132523,
        -0.2155663559056923,
        0.05314113413001553,
        -0.22291859814708326,
        -0.05257481616314752,
        -0.0070202898508898715,
        -0.21156757816938854,
        -0.04304033372674421,
        0.03186505521746941,
        0.15306015126006844,
        -0.012784769881297287,
        0.09936577216459463,
        0.2244081630938759
      ],
      [
        0.11760377795427857,
        -0.058754731149809336,
        0.02172460191967207,
        -0.13548470653375932,
        0.14044907464123635,
        0.09058483390988481,
        0.008686657525194152,
        0.03267876679536075,
        0.1707962611065149,
        -0.1679153186714829,
        0.18222440039369892,
        -0.1452049755204764,
        -0.2142164719466909,
        -0.18143820647754616,
        0.23718099485943878,
        -0.2385673002139117,
        0.10064675267750156,
        0.06853265066054359,
        0.24095344073382208,
        -0.1835310770542724
      ],
      [
        -0.03972311620686897,
        0.21165178110540261,
        -0.20429929705039462,
        -0.0608573788952258,
        0.01041525297139212,
        0.032263246603935314,
        -0.22338979870416176,
        -0.22905650184633874,
        -0.0226099222684496,
        0.20866415370561087,
        -0.030836260342334,
        0.018953227571160136,
        -0.010378926252173404,
        -0.023967891784524853,
        0.03039208208286792,
        0.2439496519104416,
        0.010125575185502833,
        0.028074977823275837,
        -0.04947862451602969,
        0.11534025240052848
      ],
      [
        0.21368081512685277,
        -0.19398288178115541,
        0.10057158831450352,
        0.15225663086003416,
        0.015667078681157576,
        -0.19059691680456137,
        -0.037448288235908955,
        0.04385864101379078,
        -0.21488303426523958,
        0.16506852653210113,
        -0.17406213944904814,
        -0.004246857088513245,
        -0.12655828054821838,
        -0.038329113623508215,
        0.02211939357307302,
        0.019548024328608915,
        0.18334674009982999,
        0.13075134651109566,
        0.01634380767103527,
        -0.03883939080425869
      ],
      [
        -0.20119279698862647,
        -0.24067411195747068,
        -0.18563477769256498,
        0.23102693690008336,
        0.23257464954189888,
        0.08074430563510093,
        -0.12873969219192516,
        -0.028471654704020688,
        0.04739569668699417,
        -0.24391878158581548,
        0.005528515566552539,
        -0.17879202083287848,
        0.09629536232028368,
        0.17886032505623917,
        -0.2027538151172371,
        0.11733564727203327,
        0.1099597281856649,
        -0.10170618824222422,
        -0.005606916150212027,
        -0.09827241408938636
      ],
      [
        0.21122556102267964,
        -0.06498473901503032,
        0.20680078014085146,
        -0.06227535957560293,
        0.12729157712659644,
        -0.07830423329688874,
        -0.024685985036918545,
        -0.024811426178406815,
        0.21111869346355638,
        -0.0010148957018034643,
        -0.15274568585448756,
        -0.03169118578840524,
        -0.008421531473237875,
        0.07817344284587802,
        0.24103863865618835,
        0.0649755700110275,
        0.2292267492594271,
        0.21095256323370482,
        0.16444604411528418,
        -0.016494732410477497
      ],
      [
        0.11824417840997004,
        0.04440506494634522,
        -0.24815361696088478,
        -0.11824573082117107,
        0.11588954758437298,
        -0.11605270283659375,
        0.17330140794721838,
        0.09414959980712923,
        0.18101690433160322,
        -0.06277071235769982,
        0.0028682355814759752,
        -0.07078149788720334,
        0.00607152881169859,
        -0.24136037456146553,
        -0.24630263294649624,
        -0.1323906048785659,
        0.24909977669612748,
        -0.23389537364351476,
        -0.013834383485954005,
        -0.1858188323603388
      ],
      [
        0.186540516025135,
        0.11200447520854595,
        -0.03425949609742385,
        0.13846153434966335,
        0.21039308681163782,
        0.08313730540625819,
        -0.07431893962108305,
        -0.03315433198783202,
        -0.18905310850750034,
        -0.09179621161988938,
        0.16179422216639994,
        0.13732393216351169,
        -0.161383317369869,
        -0.11419673669293173,
        0.03182428903196888,
        0.15311080861251136,
        0.09830450557191461,
        -0.12577555988345301,
        -0.22764959774265947,
        0.08486364027430238
      ],
      [
        -0.06339377175735494,
        0.15095253141792442,
        0.16167433560421907,
        -0.010469591902698805,
        -0.14912130782313926,
        -0.14704927855908945,
        -0.24219530706130055,
        -0.18466400582776477,
        0.19345288013671402,
        -0.10931572074299212,
        0.16281816185002618,
        -0.1034543625251777,
        -0.08783597980480462,
        0.07858381797541814,
        0.05997964124146027,
        -0.07288715705445958,
        0.02229573192114942,
        0.05676319003819719,
        -0.03830991694277097,
        0.1003607883237263
      ]
    ],
    "weightsHO": [
      [
        -0.16330159004150946,
        0.11767257080474658,
        -0.13435610118013508
      ],
      [
        0.010795534250535588,
        -0.19852187370237795,
        0.16171630031168227
      ],
      [
        0.011649447814886527,
        -0.13157681105503582,
        0.06598407603443535
      ],
      [
        0.00893206009247749,
        -0.21022068312600017,
        0.2196154223624267
      ],
      [
        -0.06118985905112062,
        0.13509734485878178,
        0.03193945946514709
      ],
      [
        -0.2148191762514997,
        0.0965712785627405,
        0.09445661752964918
      ],
      [
        0.09463624315093566,
        0.1809248245650492,
        0.07924799720514042
      ],
      [
        0.2136428713163212,
        0.13151726281620824,
        0.05084971809655936
      ],
      [
        0.0724980822420529,
        -0.14918499893193216,
        -0.21253111826158877
      ],
      [
        0.22251736031899905,
        0.0585958652108155,
        0.23753884957390747
      ],
      [
        0.12164460724213044,
        0.11063808189935509,
        -0.005826384780505567
      ],
      [
        -0.0014055532169809926,
        -0.18132715639285035,
        0.030091454048348454
      ],
      [
        0.17926600378418212,
        0.21873573851092354,
        -0.026169939273013698
      ],
      [
        0.1146818492126197,
        0.027363972313240614,
        0.20828246280765583
      ],
      [
        0.13967970831931387,
        -0.2035999160960381,
        0.1568073630448874
      ],
      [
        0.1483202605668893,
        -0.0682871177115435,
        -0.09154249545028947
      ],
      [
        -0.18542968175510544,
        0.03276520243586145,
        -0.11394286426288613
      ],
      [
        -0.11664154726146714,
        0.23065054229765192,
        -0.08711308957761299
      ],
      [
        0.05340774314587893,
        0.058619519286989274,
        0.028489085799489833
      ],
      [
        -0.054063292972702404,
        -0.23807353226901518,
        -0.06661896414991586
      ]
    ],
    "biasH": [
      0.07632121558396354,
      0.04611993919036757,
      0.006247615841510835,
      0.09320200311789656,
      0.018552956641360963,
      0.05674407857689845,
      0.09310700075726902,
      0.08571195176141869,
      0.09799028411148843,
      0.09329571497520538,
      0.0341620715089112,
      0.006248232273487054,
      0.03871053734689685,
      0.00875797842383541,
      0.05704609041485323,
      0.04897044865631333,
      0.08201204830109102,
      0.09025469178507811,
      0.02083153741733217,
      0.08570113225069464
    ],
    "biasO": [
      0.061123912888329704,
      0.07160096095530458,
      0.08954221969692865
    ],
    "momentumIH": [
      [
        0.12518272231852146,
        -0.05871491020879005,
        -0.07893616183531316,
        0.05196766112763773,
        0.04975338756689751,
        -0.03825942064984755,
        -0.21155048004598187,
        -0.16321710784533994,
        -0.20104973604479148,
        -0.22510616626804802,
        -0.0027214039094821674,
        -0.019752321817060103,
        -0.22373753645475802,
        -0.07264333163129055,
        0.1518761875328376,
        -0.021987802419513258,
        -0.03434486149608784,
        -0.03691163849931223,
        0.12105356122723376,
        -0.13904446918235147
      ],
      [
        0.23388775879534351,
        -0.1401450058460605,
        0.07937219165417342,
        0.04515046055911143,
        -0.19545476782896487,
        -0.22343698111103116,
        0.16810874650276708,
        0.1642792857237133,
        -0.23838418536189243,
        0.1104768760259709,
        -0.08318752608215063,
        0.07606466371507803,
        0.03970685037853061,
        0.0850051997989073,
        -0.1438251711541264,
        0.08980626988532103,
        0.014313823765361944,
        -0.2275714199450739,
        -0.20196470135878553,
        0.11570868847589744
      ],
      [
        -0.1464897637841721,
        -0.21219839979711475,
        -0.12372980103498665,
        -0.15398943432894352,
        -0.10139534820337226,
        -0.16714845054402816,
        0.14067475089618997,
        0.05808159704763949,
        -0.23775837849918713,
        0.0018535915395985203,
        -0.06389004876841986,
        -0.147816603091799,
        0.14454297001890604,
        0.17159373535442712,
        -0.09037522683415733,
        0.11471559034290935,
        0.097095152989226,
        -0.02154329420389589,
        0.22127736825958022,
        -0.13902403475131908
      ],
      [
        0.09134849332604167,
        0.14226146758559877,
        0.07130621433433071,
        -0.22537282835437378,
        -0.21623243547174475,
        -0.1715787523527894,
        0.09501603473723708,
        -0.0037393629111518445,
        0.20706463714683498,
        -0.2341820234353288,
        -0.011577749611087707,
        0.1417969899653868,
        -0.1541045597818631,
        -0.19818485457713753,
        -0.16007387508176762,
        -0.23425041217978315,
        -0.23402451392805146,
        -0.11611990520915083,
        0.12666753225190608,
        0.20586344162422887
      ],
      [
        0.20013063023719269,
        -0.11741362210596973,
        -0.059376432548666314,
        -0.13046579824668203,
        -0.02365087361354168,
        -0.012048052853574132,
        -0.1203118990318841,
        0.02318374449900884,
        0.1142338187823736,
        0.19307183182553744,
        0.24706802676613782,
        0.22539996722701028,
        -0.1843703285538948,
        -0.06540456123316607,
        -0.14555136617579378,
        0.03293710833903252,
        -0.14426502130858165,
        0.1755135951420831,
        0.12380220382826468,
        0.1957909768693119
      ],
      [
        -0.24981049558364354,
        -0.2023619422088233,
        -0.13073276602130612,
        -0.008485473965934465,
        -0.15097120683222676,
        -0.06519829678803657,
        -0.0899184798220719,
        0.011646807184711006,
        -0.06328218782829242,
        0.1480515044267422,
        -0.14783342925196996,
        -0.09354640925395352,
        0.21739617248680498,
        0.2437759198986077,
        -0.2080451830064035,
        0.11663659338645604,
        0.04473675605116356,
        -0.09773693218717272,
        -0.05909212057662094,
        -0.03422366031562152
      ],
      [
        -0.015722962045632838,
        0.04111680679885299,
        -0.10601057594714591,
        0.06784400298205984,
        -0.1205179893153907,
        -0.2043359895267821,
        -0.22338102186486497,
        0.23992394658037586,
        -0.08720781556685708,
        -0.1824640903846938,
        -0.10024623633779306,
        0.020218306310815337,
        0.07030054299004762,
        0.24674557706848188,
        0.0734443646372841,
        -0.07936769431204194,
        -0.11619808006187804,
        0.13910089919637558,
        0.14316691713336283,
        -0.22381395029031315
      ],
      [
        -0.1815962849352556,
        0.17200135963237917,
        -0.1767283159798576,
        0.16841907325594274,
        0.034979127886269445,
        0.08518707293688443,
        0.08832851594713675,
        0.07191155163065865,
        -0.14634393225913278,
        0.14847382106332463,
        -0.000007776797995129314,
        0.10483318714870771,
        0.1874696066790028,
        0.01196264762207333,
        0.07741898257578883,
        -0.0007965941522186659,
        0.20222289854182385,
        0.17120422788689071,
        -0.21784221373018475,
        -0.005127684561172963
      ],
      [
        -0.041182516198156494,
        0.2052824494158303,
        0.013198496120204406,
        0.21426907238461446,
        0.03692537396505269,
        0.06949394121309194,
        0.07372019179267375,
        0.10239611246590663,
        0.12728976109060552,
        0.19685987046588393,
        -0.1674628221330312,
        0.2372054780352736,
        -0.18944080586150913,
        0.14721150257934978,
        0.0849250255032099,
        -0.0019524620982926955,
        -0.15937143701201584,
        0.12186759314823326,
        -0.20017286913840926,
        0.20154263098751712
      ],
      [
        -0.20731425764739297,
        -0.14924652839549557,
        -0.046673696876141424,
        -0.12241106599965357,
        -0.021646418226841657,
        0.22203670537353215,
        0.24889275295807545,
        0.14525275039933538,
        -0.1150635219763061,
        -0.038463718484503695,
        -0.05936167930183345,
        0.22812264997023246,
        0.11959905373394131,
        0.1854338997522914,
        -0.1766806677269055,
        0.14878566361489642,
        0.11397953796795202,
        -0.24012258940572473,
        0.10438835857267736,
        0.16889801016562755
      ],
      [
        0.21976063110917565,
        -0.22426067762706847,
        0.16925860452527508,
        -0.03200413563724214,
        -0.07032097066027465,
        -0.043556012721779114,
        -0.23073111577798433,
        0.2146672935982319,
        0.18970811485302352,
        0.02881726669928597,
        -0.2481889466170344,
        -0.11214573478280931,
        0.1282395440658043,
        0.12581868640633942,
        -0.14171885170485432,
        -0.011276748698511807,
        -0.0714021273376777,
        -0.06707069350502526,
        0.17052881829138766,
        -0.02482867388013721
      ],
      [
        0.2469868870570372,
        -0.146812276469104,
        0.06443532797661888,
        0.2456805952544886,
        -0.11213945699095773,
        -0.1929071158161475,
        -0.09441285859078441,
        -0.17317643999640064,
        -0.136785309518906,
        -0.12394086314366726,
        0.13015679918885947,
        0.08477247723041159,
        -0.09136615856832864,
        0.09512992457494651,
        0.14590824656684143,
        -0.1439518773444839,
        0.12855276026963203,
        -0.10044588264237997,
        0.046761757390978986,
        -0.1629663724627718
      ],
      [
        0.19808658167791582,
        -0.10329481890162884,
        0.12875100588699084,
        0.19047918437120703,
        -0.24716424170903561,
        -0.07578165974100559,
        0.04052923910833284,
        -0.03393813142899149,
        -0.19215608207527124,
        0.13912473344815757,
        -0.24955953037785705,
        -0.07476886391905291,
        -0.2221487556117021,
        -0.19579265727556483,
        -0.001545523592589415,
        0.14685062686140582,
        0.006974352428257946,
        0.17161587613739637,
        0.23415414329705442,
        0.12277702216097941
      ],
      [
        0.16289571541037862,
        -0.09474801207514849,
        -0.013906544777162022,
        -0.09800902141630041,
        -0.22801999784125904,
        -0.1456814138290059,
        -0.15120953024826067,
        0.19455783916101677,
        -0.18309921322268063,
        0.05876948679603955,
        -0.10258978810555164,
        -0.08072569878536862,
        -0.046023699049453026,
        0.08002648275367974,
        0.14293247687668642,
        -0.04139625767729904,
        -0.10449886843059553,
        -0.1888287514732172,
        0.12840804936450945,
        -0.141892974797174
      ],
      [
        0.002689687425627363,
        -0.07277280545840681,
        -0.009634278528816043,
        -0.08161649303383911,
        0.24225877625409897,
        -0.11602604793061144,
        -0.06512493495505856,
        0.020134780658609297,
        0.04999973192849483,
        0.14435296371642803,
        0.07406401392170914,
        -0.0720632544019747,
        0.2075170326996938,
        0.052303086007706834,
        -0.10672657339836777,
        -0.04959543304778946,
        0.22654621960602606,
        -0.13310201867992433,
        -0.1088926493898229,
        0.1801723572663494
      ]
    ],
    "momentumHO": [
      [
        -0.017735809865483954,
        -0.24849285696015588,
        -0.18798360742360243
      ],
      [
        -0.08489070563866874,
        -0.18249121824095793,
        -0.13309912063060436
      ],
      [
        0.018829141024162332,
        0.1988974417728714,
        0.23678800959388946
      ],
      [
        -0.14481287235435902,
        -0.021568195877803342,
        -0.07169943433471959
      ],
      [
        -0.10427901774089943,
        -0.04154488550972624,
        0.11869732218169216
      ],
      [
        0.19464440407250794,
        0.003240458380898925,
        0.030716474570870234
      ],
      [
        -0.19684916242455808,
        -0.13747795367026716,
        -0.10535464234630265
      ],
      [
        -0.2338560531291427,
        0.03310142893358625,
        -0.23482932908285625
      ],
      [
        -0.07388521425569439,
        0.2318857115081523,
        0.06912964954124812
      ],
      [
        0.14950863116337387,
        -0.24386987537232518,
        0.16267222838970952
      ],
      [
        0.1956611397394018,
        0.22904370774753724,
        -0.22831886391097345
      ],
      [
        -0.21799457486531093,
        -0.13657598909735902,
        0.08780810388685589
      ],
      [
        -0.07931472325811639,
        0.18310815988027362,
        -0.05207312480821913
      ],
      [
        0.23484386519325984,
        0.023434882652715205,
        0.19651732392872479
      ],
      [
        -0.14515028269974473,
        -0.06570717333580212,
        0.0038603493128006594
      ],
      [
        -0.1033761155117785,
        -0.18779398007370607,
        -0.06130509349937607
      ],
      [
        0.23821595467111734,
        -0.10136331118545083,
        0.22985447949240534
      ],
      [
        -0.05026949197949038,
        0.010704641833580442,
        -0.24003774529983035
      ],
      [
        0.04581344665194098,
        -0.2402245645825124,
        -0.050421240656803645
      ],
      [
        -0.1750313478295391,
        0.19591859821430546,
        0.202639767417383
      ]
    ],
    "momentumBH": [
      0,
      0,
      0,
      0,
      0,
      0,
      0,
      0,
      0,
      0,
      0,
      0,
      0,
      0,
      0,
      0,
      0,
      0,
      0,
      0
    ],
    "momentumBO": [
      0,
      0,
      0
    ]
  },
  "metaLearning": {
    "opponentTypes": {},
    "strategyEffectiveness": {},
    "typeClassifierWeights": [
      0.25,
      0.25,
      0.25,
      0.25
    ]
  },
  "battleHistory": [],
  "saveTimestamp": 1755811679968,
  "version": "1.0.0"
}