{
  "banditArms": {
    "statistical": {
      "weight": 1,
      "plays": 0,
      "wins": 0,
      "losses": 0,
      "value": 0.5
    },
    "anti_pattern": {
      "weight": 1,
      "plays": 0,
      "wins": 0,
      "losses": 0,
      "value": 0.5
    },
    "random": {
      "weight": 1,
      "plays": 0,
      "wins": 0,
      "losses": 0,
      "value": 0.5
    },
    "q_learning": {
      "weight": 1,
      "plays": 0,
      "wins": 0,
      "losses": 0,
      "value": 0.5
    },
    "neural": {
      "weight": 1,
      "plays": 0,
      "wins": 0,
      "losses": 0,
      "value": 0.5
    },
    "meta_game": {
      "weight": 1,
      "plays": 0,
      "wins": 0,
      "losses": 0,
      "value": 0.5
    },
    "iocaine": {
      "weight": 1,
      "plays": 0,
      "wins": 0,
      "losses": 0,
      "value": 0.5
    },
    "ctw": {
      "weight": 1,
      "plays": 0,
      "wins": 0,
      "losses": 0,
      "value": 0.5
    },
    "bayesian": {
      "weight": 1,
      "plays": 0,
      "wins": 0,
      "losses": 0,
      "value": 0.5
    },
    "ensemble": {
      "weight": 1,
      "plays": 0,
      "wins": 0,
      "losses": 0,
      "value": 0.5
    },
    "charge_based": {
      "weight": 1,
      "plays": 0,
      "wins": 0,
      "losses": 0,
      "value": 0.5
    },
    "ngram_ctw": {
      "weight": 1,
      "plays": 0,
      "wins": 0,
      "losses": 0,
      "value": 0.5
    }
  },
  "banditTotalPlays": 0,
  "banditGamma": 0.1,
  "banditNumArms": 12,
  "qLearningStates": {},
  "qLearningTargetStates": {},
  "qLearningEpsilon": 0.1,
  "qLearningAlpha": 0.1,
  "qLearningGamma": 0.9,
  "qLearningUpdateCounter": 0,
  "qLearningTargetUpdateFreq": 10,
  "opponentModels": {
    "23": {
      "moves": [],
      "results": [],
      "totalBattles": 0,
      "wins": 0,
      "losses": 0,
      "ties": 0,
      "adaptationRate": 0.5,
      "lastSeen": 1765064285935
    },
    "24": {
      "moves": [],
      "results": [],
      "totalBattles": 0,
      "wins": 0,
      "losses": 0,
      "ties": 0,
      "adaptationRate": 0.5,
      "lastSeen": 1765064313162
    },
    "25": {
      "moves": [],
      "results": [],
      "totalBattles": 0,
      "wins": 0,
      "losses": 0,
      "ties": 0,
      "adaptationRate": 0.5,
      "lastSeen": 1765064335420
    },
    "26": {
      "moves": [],
      "results": [],
      "totalBattles": 0,
      "wins": 0,
      "losses": 0,
      "ties": 0,
      "adaptationRate": 0.5,
      "lastSeen": 1765064709800
    },
    "27": {
      "moves": [],
      "results": [],
      "totalBattles": 0,
      "wins": 0,
      "losses": 0,
      "ties": 0,
      "adaptationRate": 0.5,
      "lastSeen": 1765064368066
    },
    "28": {
      "moves": [],
      "results": [],
      "totalBattles": 0,
      "wins": 0,
      "losses": 0,
      "ties": 0,
      "adaptationRate": 0.5,
      "lastSeen": 1765064865212
    },
    "29": {
      "moves": [],
      "results": [],
      "totalBattles": 0,
      "wins": 0,
      "losses": 0,
      "ties": 0,
      "adaptationRate": 0.5,
      "lastSeen": 1765064897346
    },
    "30": {
      "moves": [],
      "results": [],
      "totalBattles": 0,
      "wins": 0,
      "losses": 0,
      "ties": 0,
      "adaptationRate": 0.5,
      "lastSeen": 1765065328704
    },
    "-1": {
      "moves": [],
      "results": [],
      "totalBattles": 0,
      "wins": 0,
      "losses": 0,
      "ties": 0,
      "adaptationRate": 0.5,
      "lastSeen": 1765064409108
    }
  },
  "neuralNetWeights": {
    "weightsIH": [
      [
        0.17728095595769777,
        -0.13693755870295554,
        -0.11505802576659763,
        -0.05100738418133621,
        0.1734037381220862,
        0.17280527328303086,
        -0.050001954929408066,
        -0.10902440776189704,
        -0.03556607582001248,
        -0.1830392462006517,
        0.10263287905994889,
        -0.16844154917029008,
        0.21070030114689609,
        0.026365239025097242,
        0.044188018888842495,
        0.11044661035342751,
        -0.20700358039170674,
        -0.22936107867401312,
        -0.1091320317815635,
        -0.04612957431583142
      ],
      [
        0.0784227569470054,
        -0.24484272233788296,
        0.08184385378613901,
        -0.12182039513926013,
        -0.2144135249548993,
        -0.11927586387282296,
        0.12189119652478708,
        0.18669737201748338,
        0.08996622635318652,
        0.0267741409571417,
        -0.07194537431798231,
        -0.22850687112270363,
        -0.07169723245674076,
        -0.05349974594706475,
        -0.23189018886068213,
        -0.16359500543018723,
        0.04520575384760128,
        0.10535729278607531,
        -0.22349761815897162,
        -0.21100350199426599
      ],
      [
        0.22293221490942683,
        -0.11385115133606738,
        0.021469488142604076,
        0.19769633804692033,
        0.10127734302369718,
        0.019798210996885612,
        0.1532496194256694,
        -0.17359469009262607,
        0.24886203324655198,
        -0.06544497468546284,
        -0.17947974683529577,
        -0.030513343861034214,
        -0.1923181242419586,
        -0.18446151623492957,
        0.12289461561356418,
        0.0899766202668828,
        0.18358449940899624,
        0.04810910935189805,
        -0.13064310134773582,
        0.14802422711011032
      ],
      [
        -0.24473387272901947,
        -0.18541151834307235,
        -0.06627926283980978,
        -0.07032703491927728,
        -0.14026539079931355,
        -0.0653364515481355,
        -0.06218862381140411,
        -0.044522026655046565,
        -0.1558238730836825,
        -0.16480419351379294,
        -0.04485974027081008,
        -0.2440838661116309,
        0.15556196255300903,
        0.09158023499309353,
        -0.23647007912666218,
        -0.2070272122380834,
        0.18034725187642076,
        -0.19326145403255768,
        -0.03322466098335841,
        0.09634064199263492
      ],
      [
        -0.13495553161752516,
        0.07126463572068698,
        0.02745980410389426,
        0.20620070488148512,
        -0.13145671152090133,
        0.10015865564220183,
        0.1850264261718345,
        -0.0046361050660035374,
        0.04806764319765966,
        0.09489287940389435,
        0.06011895621339958,
        -0.12754904830595526,
        0.2450183250524267,
        -0.1722267732693431,
        -0.03585623391328219,
        0.17564836600929856,
        0.09898781936865686,
        0.16888628835333408,
        0.08119844209084692,
        0.17068086018281436
      ],
      [
        0.10838233156795263,
        -0.24070701634933245,
        0.08222586513712105,
        0.0933577420867654,
        0.05264482626929301,
        -0.1646729636493528,
        -0.20935752112842143,
        0.20669477216421728,
        -0.2462423450924346,
        0.05888792641926921,
        -0.023891811246162464,
        0.1792878634670021,
        -0.0056149463201217165,
        -0.14937558271157236,
        -0.19927368514080457,
        -0.07065764402881192,
        0.055075577948581644,
        -0.23944736958278046,
        -0.24936201585827567,
        -0.18919038165150648
      ],
      [
        0.12393865734794918,
        0.15481027566924033,
        0.20748612891116558,
        -0.035483104949946775,
        0.11739261354167574,
        0.14959753242845175,
        -0.0764818097616512,
        0.22944083093023904,
        0.0995469166315468,
        -0.1110208032996558,
        0.011009421313147971,
        -0.06857522614099765,
        -0.19417150182805587,
        0.05386745088854361,
        0.17728956736845847,
        0.1951267502069769,
        0.24729065777401915,
        -0.1790821419089631,
        0.18653583650525918,
        -0.02339937915305268
      ],
      [
        -0.011782358761922018,
        0.12832771527563036,
        0.24847056145184832,
        -0.12607020094581,
        -0.10170468416521428,
        0.14765493549174447,
        0.04581052600409763,
        -0.16770324324901542,
        0.18450995608781762,
        -0.24157792700382497,
        0.10472747303109342,
        0.21353729733315152,
        0.11989640576322791,
        0.019295087512485543,
        -0.030417426271702075,
        -0.1350776098303883,
        -0.1315281116237419,
        0.24988202230916123,
        0.06929261259028785,
        0.07012385116621722
      ],
      [
        -0.1368501648650463,
        0.24856826041431745,
        0.2074242934117746,
        0.1939107156937182,
        0.052501057182468225,
        -0.22536644590780663,
        0.16361977293137098,
        0.17059797234997343,
        -0.06599716221446417,
        -0.15303988922685563,
        0.20930716505531788,
        -0.13037270873504248,
        -0.12647504146001132,
        -0.1511393076245915,
        -0.18009441010339633,
        -0.21896045685290266,
        0.17417752486936988,
        -0.22416228895297086,
        0.04143478002677914,
        -0.14311488375324088
      ],
      [
        -0.21443184052352593,
        0.134323708780676,
        -0.20290858695821457,
        -0.1545417355320925,
        0.022567965859399686,
        0.03253240417113279,
        0.22276275818504643,
        -0.17171607662655763,
        -0.2421347577768317,
        0.15596287785634955,
        0.02973462755261791,
        0.06549602034981505,
        0.07110604896458439,
        -0.22067945942065814,
        -0.231308541498372,
        -0.09603296027654362,
        -0.2315761264946411,
        -0.09816974168046588,
        0.12745091448910972,
        0.23449715714176633
      ],
      [
        -0.24907110790729448,
        -0.18999463906154057,
        -0.19704419237878024,
        -0.03246441977823711,
        0.15124003427875554,
        0.23459198187961094,
        -0.010395150662347974,
        0.10116089542322382,
        -0.23889620304441206,
        0.2310527712478968,
        -0.13376058443084826,
        -0.14545923651071735,
        -0.13957910459706468,
        0.19914870918147454,
        0.23179502315406142,
        -0.05000248801924212,
        -0.17483814277505283,
        0.2284388963383851,
        -0.2342649785565002,
        -0.05657621474203156
      ],
      [
        -0.004809433929319984,
        -0.14053207870546536,
        -0.019975415001583174,
        -0.23028586621673308,
        0.070216051333164,
        0.20922876958956993,
        -0.06380062747580961,
        -0.018327369609213662,
        -0.025256314582506878,
        -0.015485555488264913,
        0.1783653386677686,
        0.21285815903238725,
        0.08514133753369857,
        0.08300339735008277,
        -0.15112649196156858,
        -0.05447590421402915,
        -0.13898823076799227,
        0.17637905630115203,
        -0.10942598306978413,
        0.08666206568317458
      ],
      [
        0.1244142251279231,
        -0.23915332034768533,
        0.08258510019214682,
        -0.2231298903892931,
        0.12495554062756953,
        0.0009465334656444391,
        -0.0813041082934185,
        -0.17215288012025698,
        -0.09250157299604311,
        0.034090930141558395,
        0.11602273459793255,
        0.04511968722630888,
        0.19893305228118408,
        0.2236706913169495,
        0.10839758071376426,
        -0.09343856064888911,
        -0.07100023400325861,
        -0.1484457719016954,
        0.2404855833118803,
        -0.198605011553743
      ],
      [
        -0.2135784654335714,
        -0.09957699339282766,
        0.0845932338689126,
        -0.08727677420032975,
        0.1756730754696848,
        0.023320436784424747,
        -0.09820359206690432,
        0.10797384032122859,
        0.23536914643969997,
        0.1105027178655249,
        -0.05602847708940739,
        0.12284227580556928,
        0.11806996953131488,
        0.11549417527979278,
        -0.11226491587460896,
        -0.24743300746996233,
        -0.009236083234977932,
        -0.14163349256074287,
        -0.05613612023012615,
        -0.05841349293907194
      ],
      [
        -0.07412669915942094,
        -0.16808545172252964,
        0.12796292884083726,
        -0.16751964336592529,
        -0.007023656775721698,
        -0.056317386835266436,
        -0.15418392689177451,
        -0.04882513239420472,
        0.12106048594171626,
        0.03893549951766484,
        -0.12483171047381103,
        0.18109906074844317,
        -0.1078408461996182,
        0.15972490741767253,
        -0.15677567042692797,
        0.016121772639096643,
        0.19202305508457163,
        0.164102479368737,
        0.2393484592595294,
        0.1841126644965544
      ],
      [
        0.0012010718515873542,
        -0.12309645904974131,
        0.20295299020469704,
        -0.1311511630688964,
        0.10098280956013717,
        -0.2205646334917707,
        0.025282871057803913,
        0.13990159431946914,
        0.12540170815582163,
        0.23958694870694897,
        0.026214582835020428,
        -0.10235206867910607,
        0.10809382462598405,
        0.08121063311829768,
        -0.08811042919172396,
        -0.018272426485273385,
        -0.1538452456034649,
        0.14092138775706042,
        0.1096150430411208,
        -0.10183702504802794
      ],
      [
        0.01943376525032625,
        -0.10124805243102253,
        -0.0753720037876272,
        -0.20838153360916123,
        -0.12593046118672724,
        -0.044338925853072086,
        0.17017599984958343,
        -0.024513077661605487,
        0.08617139055849321,
        -0.03667356392100829,
        0.11754915049158754,
        -0.09730436671083709,
        -0.23798531569647274,
        -0.07136272930195653,
        0.008190503665178817,
        0.08074828751015761,
        -0.09735206438783095,
        -0.20992565435436328,
        0.0359731784051287,
        -0.10020829495743766
      ],
      [
        -0.0918846991421618,
        -0.15132992371042464,
        0.05147361572932674,
        0.05883671128123613,
        -0.08417532950660267,
        -0.05946542800940713,
        0.13351523531971565,
        0.07414489988117767,
        -0.046738920329804645,
        0.12594931372752993,
        -0.17568995798492126,
        -0.1309744802938425,
        0.04965940201500452,
        0.20291234610379705,
        0.21220472878390184,
        -0.08337841228302345,
        -0.09243792824889618,
        -0.08259360112164005,
        0.07981727592459253,
        0.20791602672399023
      ],
      [
        -0.14676991327312927,
        0.03019114254511812,
        0.008287623424393153,
        0.11555216842936822,
        0.09438732621899115,
        -0.10370622537704077,
        -0.2142697030214542,
        -0.13610026915828488,
        -0.1274617261593135,
        -0.019169780713907736,
        -0.1746725183882054,
        0.10478448241368321,
        0.16401197034993276,
        0.06157320594647908,
        -0.18217739863902804,
        -0.24243463601952175,
        0.16289984854093453,
        -0.1676561845082496,
        0.0739405966784048,
        -0.017767609777296633
      ],
      [
        0.0120111902020823,
        0.03558745304463373,
        -0.18370042975869383,
        0.14493629196641566,
        0.1502706499806017,
        -0.09473375749588275,
        0.2386195346801968,
        -0.2415926640106052,
        0.24890047336360732,
        0.24690574530543596,
        -0.15197114944262036,
        -0.17877352792394563,
        0.16925834140971963,
        -0.18410242642503272,
        -0.03954043313073685,
        -0.09781664433208559,
        -0.2219180370926197,
        -0.0509586244853828,
        -0.025135332564552693,
        -0.08224074468560794
      ],
      [
        -0.10940954805247216,
        -0.14211933940182653,
        0.2003312460935397,
        -0.07312461474525878,
        0.22161872996993537,
        0.18316635261068592,
        -0.11068562140658578,
        -0.23995008326277534,
        -0.014502928852129227,
        -0.2063013659992331,
        0.19880321878465712,
        0.14886774115279267,
        0.07478824624137104,
        -0.15375606516328233,
        0.17985795533392934,
        0.19030857368569654,
        0.19510184938739394,
        -0.1304525584845896,
        -0.2028978004122125,
        -0.1284947928239386
      ],
      [
        0.08672425390900318,
        -0.1908693583492066,
        0.24432058986582028,
        0.20210188724046707,
        -0.05662372861452736,
        0.1512143185976963,
        -0.2303514693860217,
        -0.01836897759075018,
        -0.23785808807565256,
        -0.17106358130216592,
        0.12593590797729604,
        0.08340711953208246,
        -0.17303834537479001,
        0.16760458611298745,
        0.1331900485154348,
        0.23790019196098122,
        0.12171009268754485,
        -0.04040597825854986,
        -0.09582956974904644,
        -0.06375333783654702
      ]
    ],
    "weightsHO": [
      [
        -0.12716387600745338,
        -0.12843773525446256,
        -0.08377859979742597
      ],
      [
        -0.19362119027023728,
        -0.1199163172012494,
        -0.06303024245668432
      ],
      [
        0.10107890862880631,
        -0.057001319092867986,
        0.20117170920976946
      ],
      [
        -0.03807026690897242,
        -0.03836870795260938,
        -0.042610501181035265
      ],
      [
        0.01422128110071419,
        -0.19247156752420613,
        -0.20378586333622595
      ],
      [
        0.24788379394854043,
        0.14457578288271178,
        0.2301991435706242
      ],
      [
        -0.16813975055905594,
        0.03806878982192474,
        -0.08466995176954129
      ],
      [
        -0.022441285814168155,
        -0.20656095675711283,
        0.060874521170232954
      ],
      [
        0.17463072028307491,
        0.18318561360627494,
        0.10851381420496353
      ],
      [
        -0.22929904589820327,
        -0.03995210895895518,
        0.07482414119054837
      ],
      [
        -0.06304636167239941,
        0.23399919602704367,
        0.1765504148955651
      ],
      [
        0.03207604535258701,
        0.19145546296091676,
        -0.09110670462498627
      ],
      [
        -0.11267268912013417,
        -0.10529304584350752,
        0.23922544923790534
      ],
      [
        -0.22560818584903775,
        -0.1920328187593877,
        -0.001811418971269796
      ],
      [
        0.09095286116475099,
        0.08906814365213944,
        0.0484648113737548
      ],
      [
        -0.11766883951097773,
        -0.19386656403605051,
        -0.17941185940309567
      ],
      [
        0.1842837870970333,
        0.20240987042453196,
        0.20129816953762447
      ],
      [
        0.09800664769058365,
        0.20475332390210732,
        0.2379023216699071
      ],
      [
        -0.09494189208547898,
        -0.06146950503639537,
        0.008353809740767049
      ],
      [
        0.02146181050611906,
        0.10040126691111173,
        -0.2043334732340757
      ]
    ],
    "biasH": [
      0.07864119323572394,
      0.031065482725657415,
      0.03588446215874741,
      0.009259987060525976,
      0.08520764812275604,
      0.02198330116581262,
      0.059941118726445836,
      0.08993925187009862,
      0.00989470957305454,
      0.06253481355900113,
      0.052198996994996,
      0.03078325295245812,
      0.08214769480456086,
      0.01049706369473824,
      0.06768728968834646,
      0.009455200269443843,
      0.08662856112782434,
      0.02604214583315232,
      0.07590117888190147,
      0.04698710407489273
    ],
    "biasO": [
      0.033949791497235204,
      0.06457247193575488,
      0.04754288839516088
    ],
    "momentumIH": [
      [
        0.05621857945812847,
        -0.0873407297281319,
        0.10088679104929366,
        -0.09140499265384727,
        0.1624335166400166,
        -0.10412360526135112,
        0.1374544128721722,
        -0.24828692986836953,
        -0.17243713857274967,
        -0.1507652947692033,
        0.23086779641466604,
        0.0006271760585119246,
        -0.08857064583516183,
        0.12269642486951482,
        0.0449034260902168,
        -0.2220947057012015,
        -0.09268046724134593,
        -0.1693948825117948,
        -0.22497764961037414,
        -0.18835011569727955
      ],
      [
        -0.03409525802617963,
        -0.031000911902890893,
        -0.07527218575857397,
        -0.19770126333994997,
        0.2445475902700177,
        -0.061028627865106655,
        0.05970454294979732,
        -0.16086728406303896,
        0.03724820169849763,
        -0.07617521884168599,
        -0.21329201172308443,
        0.010348606731557797,
        0.09556306326239472,
        0.13781112134072793,
        -0.07919400160488654,
        0.24672707535457605,
        -0.018394060500463882,
        -0.24158045357594204,
        -0.24157694202345992,
        -0.0766119750098565
      ],
      [
        -0.08581286470309357,
        -0.01555761954038748,
        -0.07207063049909124,
        -0.18084853876771378,
        0.17728755686681408,
        0.045202817424138675,
        -0.2016578118474759,
        0.02099573736921745,
        0.029686696198877982,
        -0.07588968503835358,
        0.21824879796782393,
        0.17986002064977458,
        0.11580839960148492,
        0.03522228946277173,
        -0.0924203708002248,
        0.1563749952973782,
        -0.14177949916594268,
        0.21885288307908302,
        -0.21483303108395058,
        0.15906102663948074
      ],
      [
        -0.19314075297931776,
        0.08526107105344183,
        -0.13624027079903167,
        0.2155190407658406,
        0.09703644499733288,
        0.024410058636100906,
        -0.16166567408476773,
        0.10323012378610841,
        -0.24016525668230349,
        0.00711603147597939,
        0.07855547559082665,
        -0.12243775026299974,
        -0.09855499002334012,
        -0.11316315578496916,
        -0.11456857276604437,
        0.14453636327432706,
        0.2185479627680007,
        0.1455541810457186,
        -0.1104859481439201,
        -0.14881284577952236
      ],
      [
        -0.18510506544272232,
        0.11076162249317156,
        -0.16038645295609533,
        -0.04151302269382762,
        0.20613197582599463,
        -0.10937459505963631,
        0.24487133995510613,
        -0.24862386520925805,
        -0.08566041807379166,
        0.017830363868753252,
        0.16022009007922944,
        0.16597327958430375,
        -0.2401785245260858,
        -0.06419631492746813,
        -0.11968063734827383,
        -0.24876373325734213,
        -0.09892344119454644,
        0.0167838794697035,
        -0.15574747567034308,
        -0.11552959772310356
      ],
      [
        0.19181666306156364,
        0.19418914744172988,
        0.14366851952935145,
        -0.06864539016465199,
        -0.09408474841599301,
        -0.0794036825328055,
        -0.20448743930219337,
        -0.07286422824415462,
        -0.18514845222583143,
        0.22689131267414886,
        -0.05490412027864944,
        -0.1536550729971724,
        0.0488163703792881,
        0.07150614569244662,
        -0.23869018404322917,
        -0.18634185154081795,
        0.14376461058257217,
        0.14572251671062786,
        0.11116258705253068,
        0.09858433903715147
      ],
      [
        0.09507284924489623,
        -0.23367702715064942,
        -0.06280232053712775,
        0.10018658004327019,
        -0.02510400868220819,
        -0.0889882105125609,
        0.09450450940428645,
        -0.006370030649442193,
        0.18463927934371427,
        0.12203098002516566,
        0.09067063374051476,
        0.020620739691809886,
        -0.10993269753421864,
        0.03631528459632616,
        -0.07394721754558797,
        0.2443277364769738,
        -0.016477297835949978,
        -0.08458174061413659,
        0.20257787513549652,
        -0.0010942340657604799
      ],
      [
        0.18367804744375915,
        -0.12586679333828732,
        0.2153928912620322,
        0.15331626676792265,
        -0.21112959369361162,
        -0.0004962901228118266,
        -0.10951793598785031,
        -0.06081063578768964,
        -0.23061554532887507,
        -0.12861738561670766,
        -0.08014676690979938,
        -0.025449329482718053,
        0.2068294766166383,
        0.0038895073523695922,
        0.08660887282124474,
        -0.223278038199485,
        -0.07849794854137271,
        -0.23829350629254908,
        -0.19783662061265928,
        0.0024598012761696264
      ],
      [
        0.18653912946048112,
        0.015160372716598092,
        0.23645035208141418,
        0.0066902036194503856,
        -0.23063037088463556,
        0.012641611740513703,
        -0.17075773165555452,
        0.10582930426387127,
        -0.22556814126513858,
        -0.06598151367972516,
        -0.04046814284621614,
        0.10185411603587402,
        -0.10003307003908979,
        -0.014938205316670228,
        -0.1355581250879524,
        0.10875046006927247,
        0.20631023603276166,
        -0.027416039263740366,
        -0.05047786272146715,
        0.1418257279548808
      ],
      [
        0.18738969818104956,
        -0.018841065183927364,
        -0.09600288247464617,
        0.05822054420222167,
        0.04663057736638487,
        -0.1894867967535534,
        0.24818292032245226,
        -0.10157169911965502,
        0.026730610349572914,
        -0.17692816927534982,
        -0.23200341268919333,
        -0.07315871332904944,
        0.18621704283199658,
        -0.0687515826266939,
        0.0486119453495748,
        0.2364930653082019,
        0.12217139440620595,
        -0.12511566458094303,
        -0.2490891513782182,
        -0.18009316262260444
      ],
      [
        0.23816262798012156,
        0.24448979811046057,
        -0.16077624786426992,
        -0.016206106359486605,
        0.0018821272351122742,
        -0.18507267011298434,
        0.10908848561185225,
        -0.13962234966360576,
        0.09820194475364252,
        -0.10458995385167247,
        -0.042870237534661015,
        -0.13396761085020537,
        0.20385901467345713,
        -0.0037425949433630423,
        -0.0375214827390985,
        0.13523702879436583,
        -0.2385366754216286,
        0.19967431734458352,
        0.09496672904990244,
        0.1505532031166319
      ],
      [
        0.08356796746682271,
        0.21392360570775637,
        -0.22345845148723353,
        -0.18425406475513728,
        -0.048628968385267646,
        0.06480234293718323,
        0.22945178749526474,
        0.21110264776779808,
        0.0946062004942575,
        -0.07214069192757866,
        0.08474661410197537,
        0.08456792571773575,
        0.019653829338058038,
        0.20752327402806514,
        -0.12955514388642742,
        -0.17815107406611763,
        0.15833191770388466,
        0.17740793131524746,
        -0.019979447591528032,
        0.18569835648302946
      ],
      [
        -0.17020758938792024,
        0.1187440927653064,
        0.0047894768404347365,
        0.08591256040690676,
        0.10296932543047466,
        -0.04324665883972245,
        -0.24730319622642316,
        0.0889935952530383,
        0.05214960646380018,
        0.1485578406537429,
        -0.07855987514293994,
        0.03788590633234912,
        0.12899392998390768,
        0.11590206116044499,
        -0.10906844179686737,
        -0.0977390560920477,
        0.15081440119912215,
        -0.14997472149440993,
        0.08065386658745877,
        -0.04927021341090265
      ],
      [
        -0.01601757289464001,
        0.20460682962649868,
        -0.07454998631655241,
        -0.08281511707199785,
        -0.2436906659357575,
        0.14686546418160062,
        0.1540650145424859,
        0.15062879231059323,
        0.2036110115596781,
        -0.20133708468819633,
        -0.24305153187454165,
        -0.0689309668214313,
        -0.07363283506921581,
        0.22505616903374914,
        -0.13578272764473653,
        0.04408786162154599,
        -0.13231369465100373,
        -0.0749477177269835,
        0.16237239324559483,
        0.17160268811676804
      ],
      [
        0.06090745977550205,
        -0.2242373661684548,
        -0.2303266171243994,
        -0.044609163412485,
        -0.094884027653108,
        0.027218620216597156,
        0.16402119805406656,
        -0.14373419236167495,
        0.12916339368089946,
        0.24587494359993156,
        0.20613669377805677,
        -0.11021236610045171,
        -0.22260441628339822,
        0.029115902140427696,
        -0.22434112108212823,
        -0.10020143923494051,
        -0.06423687223541075,
        0.00010183910801675466,
        0.1773352636617983,
        0.11729144463184471
      ],
      [
        -0.19487545010694707,
        0.2440235830765104,
        -0.05966010649202125,
        0.12878247267063558,
        0.02819121977220218,
        -0.025276527610907817,
        0.038391913936281385,
        0.1659120443118337,
        0.1360942430223423,
        0.0955408592044289,
        0.22740587619244856,
        0.03754501597454252,
        -0.23559621720750146,
        -0.08723963629387721,
        0.07614934140984786,
        0.22065222387160544,
        -0.11628150510413726,
        0.081377334228379,
        -0.15652693760847802,
        0.17847361347355029
      ],
      [
        -0.22459250834699906,
        0.042927876951690425,
        0.12758078278657192,
        0.02365165033994243,
        -0.041896274368917186,
        -0.23670423767338133,
        -0.1774251290092962,
        0.15800517494804212,
        -0.14903117565262336,
        0.1420579654945925,
        0.019233253509300607,
        0.20191303780498304,
        -0.12649242171982988,
        -0.06454124891629665,
        -0.20478341194529404,
        0.248454851774619,
        0.023598694248496588,
        -0.176204601556596,
        -0.22109119175564507,
        0.02124962540970521
      ],
      [
        0.12260116518319808,
        0.15932106359668763,
        0.051977214821724904,
        -0.21434936828274265,
        0.15913458765714772,
        -0.12560737213530504,
        -0.1267451751470947,
        0.21793609467427133,
        0.13239962311454478,
        0.14841299681613462,
        -0.10991905267508406,
        0.24017342709361433,
        -0.20199807597659847,
        -0.10230108118688097,
        -0.15727785312090448,
        0.13321701456448154,
        0.031717031132760254,
        -0.13020435502606897,
        -0.04004748023874405,
        -0.14626119211031408
      ],
      [
        -0.024883617383245293,
        -0.04817890351654375,
        -0.1486037280434962,
        -0.19996992937871472,
        -0.142847173691657,
        -0.1726575473218791,
        0.08486024900693656,
        0.21244367216291937,
        -0.06386267557274872,
        0.19618119857618244,
        -0.1479856038860201,
        -0.09637560720390814,
        0.2295509313948343,
        0.24468119591523063,
        -0.08551964979445814,
        0.04090459586697959,
        0.20667100909406178,
        0.15630803563374174,
        -0.20128416243275793,
        -0.022059456385107645
      ],
      [
        -0.00038253806247778854,
        0.09397195172306827,
        -0.2045400234436161,
        0.13754042265686073,
        0.1809808047299618,
        -0.11253736246387125,
        0.23505159527203667,
        -0.14369252130143806,
        0.0629545110411559,
        -0.24997242765159955,
        0.2056887320726143,
        -0.2424519111966995,
        -0.059111562745744584,
        -0.23601136233559172,
        0.009561889441888072,
        -0.11745990811253193,
        0.013172164915784212,
        -0.0013486309493839777,
        -0.19518215072382772,
        -0.07794974854104675
      ],
      [
        0.17997024025203456,
        -0.12652082856665425,
        -0.24061801132880012,
        0.2445673954393336,
        -0.07782980011275686,
        0.13845475854995848,
        -0.0745190514445847,
        0.0652412321325454,
        0.08669968435102204,
        -0.2002921056773761,
        0.19456138241855792,
        0.1995467610580588,
        0.06584397796654151,
        -0.10231882054330821,
        -0.23003876952612656,
        0.2089452546483498,
        -0.13214600910788676,
        0.21417797985971188,
        0.11102219884234132,
        0.040181979986114724
      ],
      [
        0.14426934104347067,
        0.11459803019866777,
        -0.07236879097445215,
        -0.07808359145206789,
        0.12429355022726862,
        -0.12006636589574982,
        0.07583167309971373,
        -0.20978802797335272,
        -0.1684335704134865,
        -0.06849638332307006,
        -0.18734089535976095,
        0.1949073446885845,
        0.10701277597785952,
        -0.20479558358269412,
        -0.10260463259294539,
        0.06031654838039524,
        -0.15401060024734847,
        0.07752835947559933,
        -0.1776732384205323,
        0.17344351728761098
      ]
    ],
    "momentumHO": [
      [
        -0.08952518181816649,
        -0.23325744213942723,
        -0.19699589870942624
      ],
      [
        0.06285433183015676,
        0.006790114672669101,
        0.032446605105441395
      ],
      [
        0.1814082746902107,
        0.18069139518678345,
        -0.025596413172847776
      ],
      [
        -0.20678587437675733,
        0.11245971110592834,
        -0.2318684069935968
      ],
      [
        -0.1299963859659119,
        0.050367515054209,
        0.22410138464135998
      ],
      [
        -0.19487562978079398,
        0.09579130251933676,
        -0.14373316724049157
      ],
      [
        0.07981945195688811,
        0.17287846054140688,
        -0.0037717785926119074
      ],
      [
        0.0863703514139964,
        0.13541317533016117,
        0.1441805140916016
      ],
      [
        -0.08356390295194538,
        -0.23044010463619913,
        0.12441062604186526
      ],
      [
        -0.05554888286777948,
        0.15529931051303347,
        -0.21885140892243415
      ],
      [
        -0.2396792310233209,
        -0.06058970600127633,
        0.12075125248659957
      ],
      [
        0.14728624146669467,
        -0.15030000971287028,
        -0.14786494985169085
      ],
      [
        0.04348710575422954,
        -0.12338710509739192,
        -0.04009880174195235
      ],
      [
        -0.10343853369589451,
        0.16958677550992174,
        -0.03631180880729068
      ],
      [
        0.1716125263786774,
        -0.12380802767305132,
        0.10934735106778548
      ],
      [
        -0.12499352000215946,
        0.23257517835814223,
        0.022022618986819342
      ],
      [
        0.21212134156076456,
        0.22157303027012754,
        0.16473011899382084
      ],
      [
        -0.023429374875807985,
        -0.14614089823247356,
        0.08708250097165682
      ],
      [
        -0.14747633464264231,
        0.05815416695056874,
        0.1952670985499524
      ],
      [
        0.02428990284161736,
        -0.1498147629036164,
        -0.1330980348884062
      ]
    ],
    "momentumBH": [
      0,
      0,
      0,
      0,
      0,
      0,
      0,
      0,
      0,
      0,
      0,
      0,
      0,
      0,
      0,
      0,
      0,
      0,
      0,
      0
    ],
    "momentumBO": [
      0,
      0,
      0
    ]
  },
  "metaLearning": {
    "opponentTypes": {},
    "strategyEffectiveness": {},
    "typeClassifierWeights": [
      0.25,
      0.25,
      0.25,
      0.25
    ]
  },
  "battleHistory": [],
  "ctwModels": {},
  "rnnModels": {},
  "iocaineState": {
    "enemyData": {}
  },
  "bayesianState": {
    "opponents": {}
  },
  "wslsState": {},
  "lastMoves": {},
  "globalNgramState": {
    "depth": 2,
    "minObservations": 5,
    "nGrams": {
      "rock,rock": {
        "rock": 0,
        "paper": 0,
        "scissor": 0
      },
      "rock,paper": {
        "rock": 0,
        "paper": 0,
        "scissor": 0
      },
      "rock,scissor": {
        "rock": 0,
        "paper": 0,
        "scissor": 0
      },
      "paper,rock": {
        "rock": 0,
        "paper": 0,
        "scissor": 0
      },
      "paper,paper": {
        "rock": 0,
        "paper": 0,
        "scissor": 0
      },
      "paper,scissor": {
        "rock": 0,
        "paper": 0,
        "scissor": 0
      },
      "scissor,rock": {
        "rock": 0,
        "paper": 0,
        "scissor": 0
      },
      "scissor,paper": {
        "rock": 0,
        "paper": 0,
        "scissor": 0
      },
      "scissor,scissor": {
        "rock": 0,
        "paper": 0,
        "scissor": 0
      }
    },
    "stats": {
      "predictions": 0,
      "updates": 0
    }
  },
  "saveTimestamp": 1765065345872,
  "version": "1.5.0"
}