{
  "banditArms": {
    "statistical": {
      "plays": 0,
      "rewards": 0,
      "value": 0.5,
      "confidence": 0
    },
    "anti_pattern": {
      "plays": 0,
      "rewards": 0,
      "value": 0.5,
      "confidence": 0
    },
    "random": {
      "plays": 0,
      "rewards": 0,
      "value": 0.5,
      "confidence": 0
    },
    "q_learning": {
      "plays": 0,
      "rewards": 0,
      "value": 0.5,
      "confidence": 0
    },
    "neural": {
      "plays": 0,
      "rewards": 0,
      "value": 0.5,
      "confidence": 0
    },
    "meta_game": {
      "plays": 0,
      "rewards": 0,
      "value": 0.5,
      "confidence": 0
    }
  },
  "banditEpsilon": 0.1,
  "qLearningStates": {},
  "qLearningEpsilon": 0.1,
  "qLearningAlpha": 0.1,
  "qLearningGamma": 0.9,
  "opponentModels": {
    "1": {
      "moves": [],
      "results": [],
      "totalBattles": 0,
      "wins": 0,
      "losses": 0,
      "ties": 0,
      "adaptationRate": 0.5,
      "lastSeen": 1759946174312
    },
    "2": {
      "moves": [],
      "results": [],
      "totalBattles": 0,
      "wins": 0,
      "losses": 0,
      "ties": 0,
      "adaptationRate": 0.5,
      "lastSeen": 1759946181403
    },
    "3": {
      "moves": [],
      "results": [],
      "totalBattles": 0,
      "wins": 0,
      "losses": 0,
      "ties": 0,
      "adaptationRate": 0.5,
      "lastSeen": 1759946188466
    },
    "4": {
      "moves": [],
      "results": [],
      "totalBattles": 0,
      "wins": 0,
      "losses": 0,
      "ties": 0,
      "adaptationRate": 0.5,
      "lastSeen": 1759946195533
    },
    "5": {
      "moves": [],
      "results": [],
      "totalBattles": 0,
      "wins": 0,
      "losses": 0,
      "ties": 0,
      "adaptationRate": 0.5,
      "lastSeen": 1759946207403
    },
    "6": {
      "moves": [],
      "results": [],
      "totalBattles": 0,
      "wins": 0,
      "losses": 0,
      "ties": 0,
      "adaptationRate": 0.5,
      "lastSeen": 1759946219697
    },
    "7": {
      "moves": [],
      "results": [],
      "totalBattles": 0,
      "wins": 0,
      "losses": 0,
      "ties": 0,
      "adaptationRate": 0.5,
      "lastSeen": 1759946231993
    },
    "8": {
      "moves": [],
      "results": [],
      "totalBattles": 0,
      "wins": 0,
      "losses": 0,
      "ties": 0,
      "adaptationRate": 0.5,
      "lastSeen": 1759946252366
    },
    "9": {
      "moves": [],
      "results": [],
      "totalBattles": 0,
      "wins": 0,
      "losses": 0,
      "ties": 0,
      "adaptationRate": 0.5,
      "lastSeen": 1759946264247
    },
    "10": {
      "moves": [],
      "results": [],
      "totalBattles": 0,
      "wins": 0,
      "losses": 0,
      "ties": 0,
      "adaptationRate": 0.5,
      "lastSeen": 1759946475511
    },
    "11": {
      "moves": [],
      "results": [],
      "totalBattles": 0,
      "wins": 0,
      "losses": 0,
      "ties": 0,
      "adaptationRate": 0.5,
      "lastSeen": 1759946497416
    },
    "12": {
      "moves": [],
      "results": [],
      "totalBattles": 0,
      "wins": 0,
      "losses": 0,
      "ties": 0,
      "adaptationRate": 0.5,
      "lastSeen": 1759946559875
    },
    "13": {
      "moves": [],
      "results": [],
      "totalBattles": 0,
      "wins": 0,
      "losses": 0,
      "ties": 0,
      "adaptationRate": 0.5,
      "lastSeen": 1759946587220
    },
    "14": {
      "moves": [],
      "results": [],
      "totalBattles": 0,
      "wins": 0,
      "losses": 0,
      "ties": 0,
      "adaptationRate": 0.5,
      "lastSeen": 1759946614089
    },
    "15": {
      "moves": [],
      "results": [],
      "totalBattles": 0,
      "wins": 0,
      "losses": 0,
      "ties": 0,
      "adaptationRate": 0.5,
      "lastSeen": 1759946641592
    },
    "20": {
      "moves": [],
      "results": [],
      "totalBattles": 0,
      "wins": 0,
      "losses": 0,
      "ties": 0,
      "adaptationRate": 0.5,
      "lastSeen": 1759946663616
    },
    "22": {
      "moves": [],
      "results": [],
      "totalBattles": 0,
      "wins": 0,
      "losses": 0,
      "ties": 0,
      "adaptationRate": 0.5,
      "lastSeen": 1759943983798
    },
    "23": {
      "moves": [],
      "results": [],
      "totalBattles": 0,
      "wins": 0,
      "losses": 0,
      "ties": 0,
      "adaptationRate": 0.5,
      "lastSeen": 1760015699395
    },
    "24": {
      "moves": [],
      "results": [],
      "totalBattles": 0,
      "wins": 0,
      "losses": 0,
      "ties": 0,
      "adaptationRate": 0.5,
      "lastSeen": 1760015711237
    },
    "25": {
      "moves": [],
      "results": [],
      "totalBattles": 0,
      "wins": 0,
      "losses": 0,
      "ties": 0,
      "adaptationRate": 0.5,
      "lastSeen": 1760015934859
    },
    "26": {
      "moves": [],
      "results": [],
      "totalBattles": 0,
      "wins": 0,
      "losses": 0,
      "ties": 0,
      "adaptationRate": 0.5,
      "lastSeen": 1760016032138
    },
    "27": {
      "moves": [],
      "results": [],
      "totalBattles": 0,
      "wins": 0,
      "losses": 0,
      "ties": 0,
      "adaptationRate": 0.5,
      "lastSeen": 1760015793719
    },
    "28": {
      "moves": [],
      "results": [],
      "totalBattles": 0,
      "wins": 0,
      "losses": 0,
      "ties": 0,
      "adaptationRate": 0.5,
      "lastSeen": 1759945124230
    },
    "29": {
      "moves": [],
      "results": [],
      "totalBattles": 0,
      "wins": 0,
      "losses": 0,
      "ties": 0,
      "adaptationRate": 0.5,
      "lastSeen": 1759882882383
    },
    "30": {
      "moves": [],
      "results": [],
      "totalBattles": 0,
      "wins": 0,
      "losses": 0,
      "ties": 0,
      "adaptationRate": 0.5,
      "lastSeen": 1759945191282
    },
    "-1": {
      "moves": [],
      "results": [],
      "totalBattles": 0,
      "wins": 0,
      "losses": 0,
      "ties": 0,
      "adaptationRate": 0.5,
      "lastSeen": 1760015781838
    }
  },
  "neuralNetWeights": {
    "weightsIH": [
      [
        0.096522639148106,
        -0.06474570211814112,
        -0.03801980539532179,
        -0.09481313891074294,
        -0.09215787351722704,
        -0.19798171403259412,
        -0.2392478399088941,
        0.057320088725113294,
        -0.16014804159101914,
        0.18827917129819627,
        -0.12273135424942494,
        -0.16426726927419788,
        -0.10930471802799557,
        -0.07648591808267913,
        0.19803362845710248,
        0.009825302453418172,
        0.02263932953443637,
        -0.07243577659298817,
        0.16378080906514403,
        -0.20880385578012117
      ],
      [
        0.14621806425727701,
        -0.038003522145958035,
        -0.021929930297006073,
        0.19636803790217883,
        -0.21477851218603927,
        0.1321302776088793,
        -0.13417435183959603,
        0.09767331437039428,
        -0.12189222666319088,
        0.09730304830432013,
        -0.02075299501914407,
        -0.11236461928075836,
        -0.02495245632730192,
        0.04917583903876155,
        0.029157960082792367,
        0.20913124010569695,
        -0.2071289159230607,
        -0.1738331410750581,
        0.10896256677147353,
        -0.05218518049415666
      ],
      [
        -0.1047941686501569,
        -0.23093204785550003,
        0.12757685845536204,
        -0.1277228617018663,
        -0.19676626367814698,
        0.07944134191252705,
        0.1463495774696354,
        -0.18642722004875456,
        0.04742416416891493,
        0.0761221121522343,
        -0.10218152658466106,
        -0.09028376718787334,
        -0.13422095002906453,
        -0.14156396668294302,
        -0.05808327504276933,
        0.003156055779542921,
        -0.08287717627701696,
        -0.1212892183295936,
        0.006722962256636045,
        0.21021432644013494
      ],
      [
        -0.01624976855402216,
        0.08587510696880718,
        0.09669181281807415,
        0.023781394203391426,
        0.14030140509663247,
        -0.18982122344515162,
        -0.19675178771160406,
        -0.08346531894442222,
        -0.16517994426704175,
        -0.1342564063570465,
        -0.0020847062678566175,
        -0.057185283144687515,
        0.07629464456683555,
        -0.027684229313569175,
        -0.06260195160439097,
        -0.007006924067817111,
        -0.18577235856233765,
        -0.18543371615931625,
        -0.2310565690583457,
        0.14386402840750434
      ],
      [
        0.014889495335891123,
        -0.19320003242697648,
        0.09095860740589146,
        -0.19429900147743073,
        -0.15752121123677298,
        -0.03166673423692423,
        0.042182733545674256,
        -0.13307060264941273,
        0.22013350551772148,
        -0.24456394984408147,
        0.04124405406797693,
        -0.05361062582950127,
        0.07552882079754153,
        0.13036817326194394,
        0.18767151329882947,
        0.21601437316040506,
        0.10988043034483219,
        -0.21909407688361782,
        0.03905803813532438,
        0.20862319855715628
      ],
      [
        0.13067565760146305,
        0.13576489261111535,
        -0.051214254779381796,
        0.08657050414279588,
        0.07875593793056967,
        0.007267864356286569,
        -0.08020654390105308,
        -0.14783335451561708,
        -0.12633196312402062,
        0.16256712939298013,
        -0.19643783778282087,
        0.1022287895909263,
        -0.09245622167969947,
        -0.2209681323402367,
        -0.09386986086182536,
        0.17592809238529927,
        -0.014625076815548144,
        0.14626363842240298,
        0.0006002303927766794,
        0.1570656659964179
      ],
      [
        -0.16185620496502107,
        0.22377366196616133,
        -0.08466943840448216,
        0.04504091693846979,
        0.09611001299035982,
        -0.006488480933203533,
        0.24008859495039625,
        -0.04633868159053345,
        0.05284053311975223,
        0.004258063015884717,
        0.1428785808426336,
        -0.23273591607034505,
        -0.18065500947616864,
        0.053096991141883265,
        0.18161686610445604,
        -0.10940378900023817,
        0.022502366575265387,
        -0.0874092804095703,
        0.2282351358746021,
        -0.19962520939702055
      ],
      [
        0.0010368483109084448,
        -0.22415199399358687,
        -0.12359942192074169,
        0.011772560780897612,
        0.050497375292450575,
        0.2236010389516324,
        -0.1391937539204301,
        0.08528091791399395,
        0.18776717483810446,
        -0.16545120608937547,
        0.11070289923062926,
        0.21253195386749368,
        -0.18817262075658714,
        -0.24097764680322975,
        0.1003222261535075,
        -0.0007957945744334616,
        -0.014953094401186418,
        -0.2490072829407487,
        -0.18161086089654888,
        0.01968483104954588
      ],
      [
        -0.03152389666179989,
        -0.1536997657912823,
        -0.09631424764158947,
        -0.22238043281892128,
        -0.1379648759400054,
        -0.028056247427190484,
        0.025701747704110156,
        -0.061323308371248886,
        0.1832912677007814,
        -0.22923632154951212,
        -0.038391010106594514,
        0.03968178915290321,
        0.19652903745566352,
        0.10748945357657658,
        0.03913562177156338,
        0.19505248983905732,
        -0.08129762818459485,
        -0.07787490319117718,
        -0.10956071092436936,
        0.2416049773935549
      ],
      [
        -0.22466130911435955,
        -0.1905684188336969,
        0.07009526419050649,
        0.03211994049711997,
        0.04281202854592514,
        -0.1692752137771989,
        0.2142180989195306,
        0.1822846591650934,
        -0.2070802364031843,
        0.1479038603352626,
        -0.170290472323946,
        -0.24478156076094992,
        -0.04538510678043084,
        0.13806585521530645,
        -0.2047960922723404,
        -0.23973269275501508,
        0.032039970627653624,
        0.0898784536716889,
        0.008941038265174561,
        -0.14284771022008047
      ],
      [
        -0.03558159630560509,
        0.11271684678171501,
        0.17509126985874146,
        -0.043912348897748865,
        -0.20329358247500806,
        0.03661274463541164,
        0.09084154195947136,
        0.2157202256628924,
        0.1248313186460247,
        -0.24432365143442747,
        -0.11444246945897818,
        0.09995031092264173,
        -0.13722039387618945,
        -0.1602689234096656,
        -0.19390225201656042,
        0.048754910414219865,
        -0.22806039092635066,
        0.11819697527410944,
        -0.1601389288572168,
        -0.12168748229628967
      ],
      [
        0.09583740649557226,
        -0.1395658980681065,
        0.1133915902077921,
        -0.04769963652592213,
        -0.08744695441433814,
        -0.005789382003996479,
        0.020551362241042703,
        0.002285329311607187,
        -0.04047111400596548,
        0.07297154124549221,
        0.2408309703073892,
        0.10207771750093309,
        -0.24702481587119773,
        -0.19112755826547467,
        0.1928301446858991,
        -0.09879465728175163,
        0.22844078278836766,
        0.15330853869347216,
        -0.16635506964316338,
        0.02430995760357124
      ],
      [
        -0.14280399301430213,
        -0.08494222581605937,
        -0.054486273211040936,
        -0.20659874970375902,
        -0.009232816890974327,
        0.057231551952034776,
        0.2156610530790689,
        0.1785111819078683,
        0.1607687415950495,
        -0.21636372244635993,
        -0.08970585058436809,
        0.21232573306679747,
        0.04427290895299496,
        0.02215504303683158,
        -0.09447548855865129,
        -0.21498424813492356,
        -0.12823192028264108,
        0.013998368899748592,
        -0.13052400845390366,
        -0.013724222087827753
      ],
      [
        -0.04473261982436538,
        0.15052448886893377,
        -0.08301139216331355,
        0.08116770951943442,
        -0.0005376629335998029,
        0.16643649409533046,
        -0.12771626839366468,
        -0.047104266401824524,
        0.22517708926198932,
        0.1184467766569186,
        0.0017568951089090845,
        0.14509361750504768,
        0.1262436234508968,
        -0.009917888784246487,
        -0.0052392019150628855,
        -0.1265762316651019,
        0.04319511831058309,
        -0.1390918153588946,
        -0.04008371995662552,
        0.1534988649997271
      ],
      [
        -0.02814234316404962,
        -0.19949247528306469,
        0.189451130271457,
        -0.1389797474362402,
        0.009829423652406133,
        0.14231499773645273,
        0.06479000602291518,
        0.0887896876122568,
        -0.16935538382339355,
        0.005175353633198099,
        -0.14849396979404395,
        0.00983012941190231,
        -0.045391031029596296,
        -0.1538180194436316,
        -0.02971660131463727,
        0.029140997472092645,
        -0.0951460782870811,
        0.07660492663325491,
        -0.026001834574037264,
        0.12066348835725893
      ]
    ],
    "weightsHO": [
      [
        -0.16578132555271563,
        -0.20566490282867467,
        -0.09890935175054605
      ],
      [
        -0.08075487303748441,
        -0.1516998313228184,
        -0.16605727047720142
      ],
      [
        -0.07777307915898724,
        0.11300556619181257,
        0.18508364241895137
      ],
      [
        -0.0028700715968456025,
        -0.1438705632099877,
        -0.19482157645579323
      ],
      [
        -0.053233545586153674,
        0.2317791912548347,
        -0.053972246524923606
      ],
      [
        0.20621266853641407,
        0.08839262289303029,
        -0.09708124151982789
      ],
      [
        -0.23107535142242575,
        -0.2274219215720641,
        0.13686077394025575
      ],
      [
        0.06619575165112646,
        0.08232383751657968,
        0.17520557773854917
      ],
      [
        -0.13774172707507648,
        0.19534695259934165,
        0.20795066445635668
      ],
      [
        -0.04088691495701491,
        0.13635899236466464,
        -0.052924466749329824
      ],
      [
        0.1494109885025141,
        -0.04362751515737284,
        0.13993480113631096
      ],
      [
        0.1868042614448433,
        -0.18995082221267234,
        -0.05703868628031783
      ],
      [
        -0.006843626488406307,
        0.056824297568883964,
        -0.11163814931773841
      ],
      [
        0.24836606646473292,
        -0.04222745736479405,
        -0.0423769953147447
      ],
      [
        -0.2264745803194036,
        0.18427567000558898,
        0.17160236964881814
      ],
      [
        0.1921738339312723,
        -0.24340127621673946,
        -0.043319491474889005
      ],
      [
        -0.07254992788475667,
        0.14992284769873654,
        0.03739589574783031
      ],
      [
        -0.18506869700501183,
        0.2364723261067545,
        -0.1487458394879455
      ],
      [
        -0.22810168518904683,
        0.20499174671330955,
        0.13939488786522847
      ],
      [
        0.14324646605919522,
        0.10242067148749978,
        -0.14548240400787704
      ]
    ],
    "biasH": [
      0.07731576283090902,
      0.009773980519820058,
      0.08800907422066709,
      0.08503207126163655,
      0.03673826935408377,
      0.024288651047362622,
      0.022393159263197807,
      0.09376954992523537,
      0.039553662208866004,
      0.0030472942861629495,
      0.027184702786875504,
      0.08925044118111394,
      0.03861227944513408,
      0.05892826899832382,
      0.042565389165239886,
      0.06356863195846219,
      0.05799390497803945,
      0.023373985901127516,
      0.0509456536636969,
      0.07785796518100785
    ],
    "biasO": [
      0.036869288764462896,
      0.07202401316384481,
      0.06434007001637088
    ],
    "momentumIH": [
      [
        0.06675897514875107,
        -0.087796250918877,
        -0.14231701055528545,
        0.09230016438199107,
        0.13016875711670894,
        -0.22359494111124034,
        -0.122259345306862,
        -0.08929639341264028,
        0.12003580814585735,
        -0.2118182189896517,
        -0.04242791124904133,
        -0.09984724475861073,
        -0.044151406790781,
        -0.1778472658579341,
        0.24912671421080013,
        -0.06571796416491826,
        0.09400785387527821,
        0.039005249160207534,
        -0.051258309256029144,
        -0.14185787704709107
      ],
      [
        -0.1622588340075073,
        -0.06228539448226533,
        -0.026200876013142027,
        -0.05723640690116416,
        0.014578675693853849,
        -0.2462471788343139,
        0.17065026279489015,
        -0.1420803140010216,
        0.062355190503878055,
        0.1659918120863597,
        0.1852192631384304,
        -0.18839483949399194,
        -0.10400989375108793,
        -0.08680671296704034,
        0.08203009907350967,
        -0.12903512836903297,
        0.20479050203972826,
        0.1269962834636188,
        0.03701279945076219,
        -0.19799665889243534
      ],
      [
        -0.10649426254289451,
        0.055357325718750294,
        -0.22114492303068156,
        -0.19679292811235727,
        -0.17125313038339796,
        0.15851884388126458,
        -0.18825066674160607,
        0.09470894904477822,
        0.21992184954605531,
        0.04721217434437264,
        -0.10630147877302254,
        -0.025385580318319723,
        -0.01138488931458137,
        -0.14655678023889185,
        0.0628035425611907,
        0.16349040863761,
        -0.18614027948861311,
        0.012180832501890504,
        0.0990255522169754,
        -0.036276617579609316
      ],
      [
        -0.03021730870258854,
        0.09810183565430586,
        -0.06684919459014693,
        -0.23065359003508856,
        -0.10381060117353214,
        0.1700719343908521,
        0.09371871924789454,
        0.03537195430927209,
        0.11351242847189413,
        -0.04709492254079206,
        -0.10986163601299292,
        0.21003102037697452,
        0.0492751722811946,
        0.015213487081842225,
        -0.05004522377487264,
        0.14864433875582794,
        0.22717096614809795,
        -0.22086768067794582,
        -0.20613187998224325,
        -0.10934553653680956
      ],
      [
        -0.223367194684432,
        -0.06945335263872154,
        0.20921985683955702,
        0.014522325248786161,
        -0.17346654567612207,
        0.22694595634134784,
        -0.015627941841718673,
        -0.12167383672348253,
        -0.024486227605864608,
        0.1430376758738685,
        -0.19407018113249874,
        0.06508365012644146,
        -0.20636560496581025,
        -0.14334031902231026,
        0.08205566061225922,
        0.21783074436180017,
        -0.027469563200549718,
        -0.1103753538148522,
        0.00849710097351375,
        0.10994508756222232
      ],
      [
        0.1430351708922698,
        0.21217367747465465,
        0.2349634687023595,
        0.13077383258123154,
        -0.19785105436067874,
        -0.015480540615447569,
        0.07470832878761424,
        -0.2173279638147665,
        -0.08030516652053643,
        0.1722013127170795,
        0.06356890086740186,
        0.19216141727892533,
        0.16344961925771528,
        0.18076324026489166,
        0.0028478834629632743,
        0.17331013206198898,
        0.10200202044590545,
        -0.06607781660683953,
        -0.013667963648688164,
        -0.18101049944402414
      ],
      [
        -0.22229615866941121,
        -0.11688438585221217,
        0.02093325572735305,
        -0.212573536270094,
        0.039155546010259834,
        0.2115964543660338,
        0.03667830922966797,
        0.09284894566461255,
        -0.22211782936202484,
        0.11711741104405982,
        0.09777289809364709,
        -0.04042503919757878,
        -0.21214021506595104,
        0.14706395272966732,
        0.10155793555045278,
        -0.19472554955403953,
        -0.15274169331675236,
        -0.049415094031929896,
        -0.20015732595121505,
        -0.12198810308738961
      ],
      [
        -0.2385830660729188,
        -0.14381161656931585,
        0.15992509629680396,
        0.24453426025506164,
        0.1740791178188782,
        0.22544937382687025,
        0.14108144549138968,
        0.14454930679452382,
        -0.19265394671858904,
        0.06160451677431267,
        0.20896252434950635,
        0.12621669236319255,
        0.24457727916474803,
        0.21208589179227577,
        -0.029240049268295376,
        -0.10355449667679972,
        -0.05598119816941183,
        -0.19411956025509725,
        0.13274906488153082,
        -0.009033701334872135
      ],
      [
        0.20130678259892942,
        -0.1461581789437264,
        -0.1706801069307352,
        0.22099905753621718,
        0.16801125177850484,
        0.13764440299756453,
        -0.13634185998154358,
        0.13413800133818576,
        0.22712028278849516,
        0.12615298862843283,
        -0.21604304627103987,
        -0.1680086273559147,
        0.04955754470533946,
        0.004634511419178811,
        0.13216458835444622,
        0.22290138616917854,
        -0.040506759009444004,
        -0.09425420526603001,
        0.0935175146722087,
        -0.0709478417551005
      ],
      [
        0.08719201965974888,
        0.04269572413304934,
        -0.19120469535420193,
        -0.2422823302366427,
        -0.20971727150933395,
        -0.2378417213131261,
        -0.22884761717969115,
        -0.08154211317198157,
        -0.008860817205606386,
        -0.085264594892008,
        -0.012376705527005205,
        0.24428318834114682,
        -0.09437872211244891,
        0.21948231823682096,
        -0.11762535660392659,
        -0.22593332831885304,
        -0.14336821598705385,
        0.16121959133422048,
        -0.1860594887552247,
        -0.12730820176637958
      ],
      [
        0.1524991878485854,
        -0.21489746094661777,
        0.1420894319482774,
        0.20275194908794347,
        -0.01200727590656403,
        -0.13892795732401264,
        -0.06237643186948405,
        -0.23620090636644242,
        0.19311836498742863,
        0.001083338048636473,
        0.23553375037798174,
        -0.1792801999988518,
        0.21256787713298197,
        0.11779191826603774,
        -0.15177211844974836,
        0.08973515870851889,
        -0.08405412470370921,
        0.18701941677716516,
        0.010654333574963482,
        0.1896769841332725
      ],
      [
        -0.07794909260875083,
        0.07143259737570995,
        0.09414632914406229,
        -0.2470615456986176,
        0.01101250668751419,
        -0.0601341787077071,
        0.07252152303818149,
        0.1303827778524158,
        0.01429098115575489,
        0.16431430394145963,
        -0.08666098098808062,
        -0.10338325505907375,
        -0.1723275036885864,
        -0.08956079209675505,
        0.06771873480248047,
        0.18955481460237988,
        0.22824595670484282,
        0.19503128296751426,
        -0.1540552885052,
        -0.08665582505161573
      ],
      [
        -0.22856602625038103,
        0.09546464162865453,
        -0.1658472677085392,
        0.13592608981615129,
        -0.006184245842548175,
        0.05265534755793544,
        -0.16781590767235832,
        0.2499686598337887,
        -0.2117513552122231,
        -0.22948748456987267,
        -0.08685175827312597,
        -0.13852808622117496,
        -0.24494019708257841,
        0.16932737390006036,
        -0.14149797622590332,
        -0.2198935192228173,
        -0.028900188899182777,
        0.018403945306891822,
        -0.18228978781067884,
        -0.09375358274608037
      ],
      [
        0.10163526827529323,
        0.09292217073839382,
        -0.16598348677616814,
        -0.0071816461225840955,
        0.17023679625704746,
        -0.052094590347767866,
        -0.1791323669731122,
        0.13717308806436257,
        -0.1444361311157234,
        -0.21598917959056707,
        -0.01953784688284277,
        0.19102957969191514,
        -0.24966975578490525,
        -0.06804724112094485,
        0.14479885043748875,
        -0.05362868599926429,
        -0.027526326650721633,
        0.23562264017651258,
        0.17388977489079005,
        -0.21955316182245443
      ],
      [
        -0.04412455857685138,
        -0.22107729870095993,
        0.17589949016948836,
        0.11855092096387365,
        -0.18952593386752825,
        -0.06896567369031825,
        -0.03311472076414512,
        -0.2228951308973418,
        0.20618561177456574,
        0.2323995275773757,
        0.21481132195144192,
        0.16022478254886574,
        -0.11738982887788563,
        -0.16834642176062087,
        0.23801652061819456,
        0.05158140009346446,
        -0.2366155149795457,
        -0.1415137249919336,
        -0.11058232416684244,
        -0.2244471614256116
      ]
    ],
    "momentumHO": [
      [
        -0.0703510601175984,
        0.012321699556750665,
        0.09741153857109319
      ],
      [
        0.17821508196351932,
        0.13175914659697363,
        -0.027830158932501514
      ],
      [
        -0.1214516788271669,
        0.2041653302962082,
        0.012354504093588736
      ],
      [
        -0.18977460636334254,
        -0.21786681367773264,
        0.23205098655264633
      ],
      [
        0.08445753471718165,
        -0.018718470910467522,
        0.011480173260085214
      ],
      [
        -0.020465700407107934,
        -0.0681703878822092,
        0.23543177919768132
      ],
      [
        0.04171426240056919,
        0.06915878102324968,
        0.195642579834432
      ],
      [
        -0.05708854516803574,
        -0.14320840307922156,
        0.0820899006063659
      ],
      [
        0.20105966794270125,
        -0.03777419767164136,
        -0.015268328956678179
      ],
      [
        0.026116943417359484,
        -0.17017585838105753,
        -0.23508038322109215
      ],
      [
        -0.09539351604531454,
        0.23731039116275343,
        0.06308878001196971
      ],
      [
        -0.08692830551843556,
        -0.23224163191761615,
        0.15706929797575153
      ],
      [
        -0.06253251281379812,
        -0.13780589614080208,
        -0.02859877985469339
      ],
      [
        -0.06976079466179863,
        -0.05777118739926124,
        0.10548713992644798
      ],
      [
        -0.183709266223529,
        0.022871918109697686,
        0.23451950083074435
      ],
      [
        -0.08167212327678464,
        -0.11767542781513562,
        -0.056475015594828926
      ],
      [
        0.056902452830393524,
        -0.12912835091494956,
        -0.15258320767270672
      ],
      [
        0.15944122467794508,
        -0.2281207490146523,
        0.007473429958187561
      ],
      [
        -0.22546979681720025,
        -0.18585379804862157,
        0.022171297811735324
      ],
      [
        -0.06617200617332453,
        -0.039497033107311785,
        -0.22685687290433487
      ]
    ],
    "momentumBH": [
      0,
      0,
      0,
      0,
      0,
      0,
      0,
      0,
      0,
      0,
      0,
      0,
      0,
      0,
      0,
      0,
      0,
      0,
      0,
      0
    ],
    "momentumBO": [
      0,
      0,
      0
    ]
  },
  "metaLearning": {
    "opponentTypes": {},
    "strategyEffectiveness": {},
    "typeClassifierWeights": [
      0.25,
      0.25,
      0.25,
      0.25
    ]
  },
  "battleHistory": [],
  "saveTimestamp": 1760016300000,
  "version": "1.0.0"
}